svm_type c_svc
kernel_type rbf
gamma 0.041666666666666664
nr_class 6
total_sv 4109
rho -0.007070280761856079 0.49792346545412514 -0.25504898194886827 -0.2561967210257584 -0.19556774408437033 0.5471750809065198 -0.25170472947617545 -0.23665100574318798 -0.15313172768132927 -0.644642057323944 -0.6410367112455682 -0.5907329158871749 0.06070854289589615 0.11555407888861632 0.14913144658603533
label 4 5 6 1 2 3
nr_sv 662 407 625 747 924 744
SV
0.0 0.0 0.0 0.0 1.0 1:19.0 2:0.0 3:0.0 4:0.0 5:0.0 6:2.0 7:26.0 8:0.884615385 9:4.0 10:4.0 11:5.0 12:6.0 13:3.0 14:2.0 15:1.0 16:1.0 17:1.0 18:7.0 19:5.0 20:0.0 21:1.0 22:2.0 23:11.0 24:26.0 
0.0 0.0 0.0 0.0 1.0 1:24.0 2:0.0 3:0.0 4:0.0 5:0.0 6:0.0 7:29.0 8:0.862068966 9:3.0 10:3.0 11:1.0 12:4.0 13:5.0 14:2.0 15:2.0 16:3.0 17:4.0 18:8.0 19:7.0 20:1.0 21:0.0 22:3.0 23:13.0 24:29.0 
0.0 0.0 0.0 0.4487264880345806 1.0 1:23.0 2:0.0 3:0.0 4:0.0 5:0.0 6:1.0 7:27.0 8:0.777777778 9:4.0 10:3.0 11:0.0 12:7.0 13:2.0 14:3.0 15:0.0 16:1.0 17:5.0 18:12.0 19:3.0 20:0.0 21:0.0 22:5.0 23:15.0 24:27.0 
0.0 0.0 0.0 1.0 1.0 1:21.0 2:1.0 3:0.0 4:0.0 5:0.0 6:1.0 7:27.0 8:0.962962963 9:5.0 10:6.0 11:0.0 12:7.0 13:5.0 14:3.0 15:2.0 16:1.0 17:2.0 18:8.0 19:5.0 20:1.0 21:1.0 22:2.0 23:11.0 24:27.0 
0.0 0.0 0.0 0.6215998929872616 1.0 1:21.0 2:0.0 3:0.0 4:0.0 5:1.0 6:0.0 7:24.0 8:0.833333333 9:4.0 10:8.0 11:0.0 12:4.0 13:5.0 14:1.0 15:1.0 16:3.0 17:4.0 18:8.0 19:7.0 20:1.0 21:0.0 22:1.0 23:16.0 24:24.0 
0.0 0.0 0.0 0.9788930406643825 1.0 1:19.0 2:0.0 3:0.0 4:0.0 5:0.0 6:2.0 7:26.0 8:0.884615385 9:4.0 10:4.0 11:5.0 12:6.0 13:3.0 14:2.0 15:1.0 16:1.0 17:1.0 18:7.0 19:5.0 20:0.0 21:1.0 22:2.0 23:11.0 24:26.0 
0.8040741544665265 1.0 0.5973281440896616 0.7634882628971076 1.0 1:18.0 2:0.0 3:0.0 4:0.0 5:0.0 6:1.0 7:26.0 8:0.884615385 9:5.0 10:3.0 11:0.0 12:5.0 13:8.0 14:1.0 15:2.0 16:1.0 17:1.0 18:8.0 19:12.0 20:0.0 21:2.0 22:2.0 23:17.0 24:26.0 
0.6635269865265158 0.9315542103116916 0.4886893783968245 0.9380929295753899 1.0 1:15.0 2:0.0 3:0.0 4:0.0 5:0.0 6:1.0 7:26.0 8:1.0 9:4.0 10:5.0 11:11.0 12:9.0 13:4.0 14:2.0 15:1.0 16:1.0 17:3.0 18:9.0 19:5.0 20:0.0 21:1.0 22:2.0 23:12.0 24:26.0 
0.0 0.0 0.0 0.9912076687349928 1.0 1:16.0 2:1.0 3:0.0 4:0.0 5:0.0 6:2.0 7:24.0 8:0.958333333 9:4.0 10:6.0 11:2.0 12:7.0 13:4.0 14:2.0 15:1.0 16:0.0 17:3.0 18:6.0 19:6.0 20:0.0 21:1.0 22:1.0 23:15.0 24:24.0 
0.0 0.0 0.0 0.0 0.9958612242039158 1:20.0 2:0.0 3:0.0 4:0.0 5:0.0 6:1.0 7:28.0 8:0.928571429 9:4.0 10:3.0 11:6.0 12:10.0 13:4.0 14:1.0 15:2.0 16:0.0 17:5.0 18:12.0 19:4.0 20:0.0 21:2.0 22:4.0 23:11.0 24:28.0 
0.0 0.0 0.0 0.0 1.0 1:23.0 2:0.0 3:0.0 4:0.0 5:0.0 6:1.0 7:28.0 8:0.821428571 9:4.0 10:6.0 11:1.0 12:5.0 13:5.0 14:1.0 15:3.0 16:1.0 17:2.0 18:8.0 19:6.0 20:0.0 21:1.0 22:2.0 23:12.0 24:28.0 
0.6822313884846163 1.0 0.7141041673952564 1.0 1.0 1:18.0 2:1.0 3:0.0 4:0.0 5:0.0 6:2.0 7:23.0 8:0.956521739 9:4.0 10:3.0 11:1.0 12:4.0 13:2.0 14:7.0 15:2.0 16:0.0 17:3.0 18:7.0 19:3.0 20:5.0 21:0.0 22:3.0 23:12.0 24:23.0 
0.27896915430952574 0.5092008452310322 0.28222593354532644 1.0 1.0 1:20.0 2:1.0 3:0.0 4:2.0 5:0.0 6:1.0 7:26.0 8:0.730769231 9:4.0 10:1.0 11:0.0 12:8.0 13:3.0 14:1.0 15:1.0 16:0.0 17:6.0 18:9.0 19:5.0 20:0.0 21:1.0 22:6.0 23:11.0 24:26.0 
0.3077100800426517 0.18757518548231233 0.2801294293169807 1.0 1.0 1:20.0 2:0.0 3:0.0 4:0.0 5:0.0 6:2.0 7:23.0 8:0.826086957 9:4.0 10:6.0 11:0.0 12:5.0 13:4.0 14:3.0 15:0.0 16:1.0 17:4.0 18:9.0 19:4.0 20:1.0 21:0.0 22:2.0 23:16.0 24:23.0 
0.29880299877212657 0.5019948925303215 0.26276275194803705 1.0 1.0 1:21.0 2:0.0 3:0.0 4:0.0 5:0.0 6:1.0 7:28.0 8:0.892857143 9:4.0 10:5.0 11:5.0 12:7.0 13:3.0 14:3.0 15:4.0 16:1.0 17:2.0 18:7.0 19:4.0 20:0.0 21:1.0 22:2.0 23:8.0 24:28.0 
0.28356564789549654 0.5597054482933904 0.24228095525926777 0.11596766298201167 0.8725003046526706 1:23.0 2:1.0 3:0.0 4:0.0 5:0.0 6:0.0 7:26.0 8:0.884615385 9:3.0 10:9.0 11:0.0 12:3.0 13:6.0 14:0.0 15:0.0 16:5.0 17:3.0 18:8.0 19:9.0 20:0.0 21:0.0 22:1.0 23:14.0 24:26.0 
0.0 0.0 0.41411432641275164 1.0 1.0 1:16.0 2:0.0 3:0.0 4:0.0 5:0.0 6:3.0 7:21.0 8:0.952380952 9:4.0 10:1.0 11:2.0 12:7.0 13:2.0 14:2.0 15:2.0 16:0.0 17:4.0 18:11.0 19:2.0 20:1.0 21:1.0 22:4.0 23:9.0 24:21.0 
0.0 0.0 0.0 0.7519715659911684 1.0 1:23.0 2:0.0 3:0.0 4:0.0 5:0.0 6:1.0 7:29.0 8:0.862068966 9:4.0 10:4.0 11:1.0 12:7.0 13:4.0 14:3.0 15:0.0 16:1.0 17:4.0 18:8.0 19:6.0 20:1.0 21:0.0 22:4.0 23:10.0 24:29.0 
0.0 0.0 0.0 0.0 1.0 1:19.0 2:1.0 3:0.0 4:0.0 5:0.0 6:2.0 7:24.0 8:0.958333333 9:4.0 10:5.0 11:3.0 12:8.0 13:2.0 14:5.0 15:0.0 16:0.0 17:4.0 18:9.0 19:3.0 20:0.0 21:0.0 22:2.0 23:11.0 24:24.0 
0.0 0.0 0.0 0.2432490272408043 1.0 1:19.0 2:1.0 3:0.0 4:0.0 5:0.0 6:2.0 7:24.0 8:0.958333333 9:4.0 10:5.0 11:3.0 12:8.0 13:2.0 14:5.0 15:0.0 16:0.0 17:4.0 18:9.0 19:3.0 20:0.0 21:0.0 22:2.0 23:11.0 24:24.0 
0.0 0.0 0.0 0.0 0.9041290760730226 1:19.0 2:0.0 3:0.0 4:1.0 5:0.0 6:2.0 7:25.0 8:0.92 9:4.0 10:4.0 11:1.0 12:5.0 13:1.0 14:4.0 15:3.0 16:0.0 17:2.0 18:7.0 19:4.0 20:2.0 21:1.0 22:1.0 23:13.0 24:25.0 
0.0 0.0 0.0 0.0 1.0 1:21.0 2:2.0 3:0.0 4:1.0 5:0.0 6:0.0 7:27.0 8:0.962962963 9:5.0 10:7.0 11:0.0 12:3.0 13:6.0 14:3.0 15:2.0 16:3.0 17:2.0 18:6.0 19:5.0 20:2.0 21:0.0 22:2.0 23:11.0 24:27.0 
0.0 0.0 0.0 0.0 1.0 1:21.0 2:2.0 3:0.0 4:1.0 5:0.0 6:0.0 7:27.0 8:0.962962963 9:5.0 10:7.0 11:0.0 12:3.0 13:6.0 14:3.0 15:2.0 16:3.0 17:2.0 18:6.0 19:5.0 20:2.0 21:0.0 22:2.0 23:11.0 24:27.0 
0.0 0.0 0.0 0.0 1.0 1:21.0 2:0.0 3:0.0 4:0.0 5:0.0 6:1.0 7:27.0 8:0.925925926 9:4.0 10:5.0 11:0.0 12:6.0 13:3.0 14:3.0 15:1.0 16:2.0 17:5.0 18:10.0 19:4.0 20:0.0 21:1.0 22:4.0 23:13.0 24:27.0 
0.0 0.05193737662770355 0.014346473902759482 0.2278327964642755 1.0 1:22.0 2:0.0 3:0.0 4:0.0 5:0.0 6:0.0 7:26.0 8:0.961538462 9:4.0 10:8.0 11:1.0 12:4.0 13:7.0 14:3.0 15:3.0 16:3.0 17:3.0 18:8.0 19:8.0 20:0.0 21:1.0 22:0.0 23:15.0 24:26.0 
0.4128573167902276 0.5677798787900616 0.4274502711469874 1.0 1.0 1:18.0 2:0.0 3:0.0 4:0.0 5:0.0 6:2.0 7:24.0 8:0.875 9:4.0 10:3.0 11:7.0 12:9.0 13:3.0 14:0.0 15:0.0 16:0.0 17:5.0 18:12.0 19:3.0 20:0.0 21:0.0 22:4.0 23:9.0 24:24.0 
0.6211511121950193 0.9289498816399497 1.0 1.0 1.0 1:16.0 2:0.0 3:0.0 4:0.0 5:0.0 6:3.0 7:21.0 8:0.952380952 9:4.0 10:1.0 11:2.0 12:7.0 13:2.0 14:2.0 15:2.0 16:0.0 17:4.0 18:11.0 19:2.0 20:1.0 21:1.0 22:4.0 23:9.0 24:21.0 
0.9117772340091196 1.0 0.6851235497084509 1.0 1.0 1:20.0 2:0.0 3:0.0 4:0.0 5:0.0 6:2.0 7:29.0 8:0.965517241 9:5.0 10:1.0 11:7.0 12:11.0 13:4.0 14:3.0 15:1.0 16:0.0 17:5.0 18:13.0 19:2.0 20:0.0 21:1.0 22:5.0 23:11.0 24:11.0 
0.0 0.0 0.0 0.3947876597713095 1.0 1:22.0 2:0.0 3:0.0 4:0.0 5:0.0 6:1.0 7:28.0 8:0.857142857 9:4.0 10:3.0 11:0.0 12:7.0 13:4.0 14:3.0 15:1.0 16:1.0 17:4.0 18:11.0 19:3.0 20:1.0 21:1.0 22:3.0 23:12.0 24:28.0 
0.37011364252491097 0.8918316227349403 0.43202463069617186 0.20583817367507964 0.04657092053401612 1:14.0 2:0.0 3:0.0 4:0.0 5:0.0 6:2.0 7:25.0 8:0.88 9:4.0 10:1.0 11:4.0 12:10.0 13:3.0 14:0.0 15:0.0 16:0.0 17:4.0 18:15.0 19:2.0 20:0.0 21:0.0 22:4.0 23:14.0 24:25.0 
0.35671541340791635 0.5426554554099268 0.39073596031736024 1.0 1.0 1:17.0 2:0.0 3:0.0 4:0.0 5:1.0 6:1.0 7:24.0 8:0.875 9:5.0 10:3.0 11:5.0 12:7.0 13:4.0 14:4.0 15:0.0 16:0.0 17:4.0 18:8.0 19:5.0 20:0.0 21:0.0 22:5.0 23:17.0 24:24.0 
0.19757930388417055 0.307339282625685 0.15808751392861703 0.2816710356068711 1.0 1:18.0 2:0.0 3:0.0 4:1.0 5:0.0 6:0.0 7:30.0 8:0.9 9:4.0 10:3.0 11:7.0 12:7.0 13:4.0 14:1.0 15:1.0 16:2.0 17:3.0 18:13.0 19:4.0 20:0.0 21:0.0 22:5.0 23:10.0 24:30.0 
0.23244994180252407 0.39153762734216613 0.3261638257929143 1.0 1.0 1:17.0 2:3.0 3:0.0 4:0.0 5:0.0 6:2.0 7:26.0 8:0.923076923 9:5.0 10:3.0 11:0.0 12:6.0 13:1.0 14:5.0 15:2.0 16:0.0 17:3.0 18:6.0 19:2.0 20:1.0 21:0.0 22:3.0 23:9.0 24:26.0 
0.34296542148804976 0.0 0.0 1.0 1.0 1:20.0 2:0.0 3:0.0 4:0.0 5:0.0 6:2.0 7:26.0 8:0.884615385 9:4.0 10:4.0 11:0.0 12:5.0 13:5.0 14:5.0 15:0.0 16:1.0 17:2.0 18:7.0 19:6.0 20:0.0 21:0.0 22:2.0 23:11.0 24:26.0 
0.24309394919950406 0.31355655263398496 0.3425116097937 1.0 1.0 1:16.0 2:1.0 3:0.0 4:1.0 5:0.0 6:2.0 7:24.0 8:0.833333333 9:4.0 10:1.0 11:3.0 12:11.0 13:2.0 14:1.0 15:0.0 16:0.0 17:5.0 18:10.0 19:2.0 20:0.0 21:1.0 22:4.0 23:12.0 24:24.0 
0.6980264972885948 0.8103998629703073 0.3583465322042437 0.7489545518755042 1.0 1:20.0 2:1.0 3:0.0 4:0.0 5:0.0 6:1.0 7:27.0 8:0.962962963 9:5.0 10:7.0 11:0.0 12:11.0 13:3.0 14:4.0 15:1.0 16:0.0 17:2.0 18:9.0 19:4.0 20:0.0 21:0.0 22:1.0 23:15.0 24:27.0 
0.0 0.0 0.0 1.0 1.0 1:23.0 2:0.0 3:0.0 4:0.0 5:0.0 6:1.0 7:27.0 8:0.888888889 9:4.0 10:5.0 11:4.0 12:7.0 13:4.0 14:1.0 15:0.0 16:1.0 17:5.0 18:11.0 19:4.0 20:0.0 21:0.0 22:4.0 23:10.0 24:27.0 
0.34128108976602634 0.4026362869518978 0.22169078266743514 1.0 1.0 1:19.0 2:0.0 3:0.0 4:0.0 5:0.0 6:2.0 7:26.0 8:0.884615385 9:4.0 10:1.0 11:0.0 12:5.0 13:5.0 14:3.0 15:1.0 16:0.0 17:4.0 18:12.0 19:2.0 20:1.0 21:1.0 22:4.0 23:11.0 24:26.0 
0.0 0.0 0.0 1.0 1.0 1:19.0 2:1.0 3:0.0 4:1.0 5:0.0 6:1.0 7:26.0 8:0.961538462 9:4.0 10:3.0 11:1.0 12:5.0 13:6.0 14:1.0 15:3.0 16:1.0 17:3.0 18:6.0 19:8.0 20:0.0 21:1.0 22:2.0 23:12.0 24:26.0 
0.17028115783353306 0.19219721764741618 0.2611153685948825 1.0 1.0 1:22.0 2:0.0 3:0.0 4:0.0 5:0.0 6:2.0 7:26.0 8:0.884615385 9:4.0 10:1.0 11:0.0 12:8.0 13:2.0 14:5.0 15:1.0 16:0.0 17:4.0 18:9.0 19:2.0 20:0.0 21:1.0 22:4.0 23:10.0 24:26.0 
0.0 0.0 0.0 1.0 1.0 1:19.0 2:2.0 3:0.0 4:0.0 5:1.0 6:1.0 7:27.0 8:0.851851852 9:4.0 10:2.0 11:0.0 12:9.0 13:3.0 14:2.0 15:2.0 16:0.0 17:3.0 18:9.0 19:5.0 20:0.0 21:2.0 22:3.0 23:10.0 24:27.0 
0.14581900853084256 0.21045383124431344 0.4678620127031976 1.0 1.0 1:14.0 2:0.0 3:0.0 4:0.0 5:1.0 6:2.0 7:26.0 8:0.807692308 9:4.0 10:1.0 11:5.0 12:8.0 13:2.0 14:0.0 15:2.0 16:0.0 17:3.0 18:9.0 19:2.0 20:0.0 21:0.0 22:3.0 23:9.0 24:26.0 
0.7781901706616802 1.0 0.7605738023474866 1.0 1.0 1:14.0 2:1.0 3:0.0 4:0.0 5:0.0 6:3.0 7:24.0 8:0.875 9:4.0 10:5.0 11:0.0 12:2.0 13:6.0 14:2.0 15:4.0 16:0.0 17:0.0 18:4.0 19:4.0 20:2.0 21:2.0 22:0.0 23:10.0 24:24.0 
0.0 0.0 0.0 1.0 1.0 1:18.0 2:1.0 3:0.0 4:0.0 5:0.0 6:2.0 7:25.0 8:0.96 9:4.0 10:3.0 11:0.0 12:5.0 13:3.0 14:4.0 15:3.0 16:1.0 17:3.0 18:7.0 19:4.0 20:0.0 21:2.0 22:3.0 23:10.0 24:25.0 
0.39085396602815947 0.4580304476727616 0.22708985630488265 1.0 1.0 1:23.0 2:0.0 3:0.0 4:1.0 5:0.0 6:1.0 7:27.0 8:0.888888889 9:3.0 10:1.0 11:1.0 12:7.0 13:1.0 14:2.0 15:2.0 16:1.0 17:6.0 18:11.0 19:1.0 20:0.0 21:2.0 22:6.0 23:12.0 24:27.0 
0.0 0.0 0.0 1.0 1.0 1:18.0 2:2.0 3:0.0 4:0.0 5:0.0 6:1.0 7:25.0 8:0.92 9:4.0 10:5.0 11:4.0 12:7.0 13:5.0 14:2.0 15:1.0 16:1.0 17:3.0 18:10.0 19:5.0 20:1.0 21:1.0 22:2.0 23:11.0 24:25.0 
0.0 0.0 0.0 0.5681722930458312 1.0 1:23.0 2:0.0 3:0.0 4:0.0 5:0.0 6:1.0 7:27.0 8:0.888888889 9:4.0 10:3.0 11:3.0 12:5.0 13:6.0 14:1.0 15:3.0 16:1.0 17:3.0 18:8.0 19:7.0 20:0.0 21:2.0 22:2.0 23:12.0 24:27.0 
0.0 0.11429200662459393 0.0 0.43543364867059586 1.0 1:14.0 2:0.0 3:0.0 4:0.0 5:0.0 6:3.0 7:21.0 8:1.0 9:5.0 10:4.0 11:0.0 12:7.0 13:6.0 14:1.0 15:0.0 16:0.0 17:2.0 18:6.0 19:8.0 20:1.0 21:0.0 22:2.0 23:15.0 24:21.0 
0.0 0.015317936615753359 0.06646971410046905 1.0 1.0 1:20.0 2:1.0 3:0.0 4:0.0 5:0.0 6:2.0 7:25.0 8:0.88 9:5.0 10:3.0 11:0.0 12:6.0 13:4.0 14:4.0 15:0.0 16:0.0 17:2.0 18:11.0 19:3.0 20:0.0 21:0.0 22:3.0 23:14.0 24:25.0 
0.12513279858026208 0.11011758129268318 0.06073160605129956 0.8486252896924323 1.0 1:22.0 2:1.0 3:0.0 4:0.0 5:0.0 6:1.0 7:29.0 8:0.896551724 9:3.0 10:3.0 11:1.0 12:6.0 13:2.0 14:1.0 15:2.0 16:2.0 17:5.0 18:10.0 19:2.0 20:0.0 21:1.0 22:5.0 23:8.0 24:29.0 
0.4656208454479399 0.7095303014217865 0.4487439749260261 1.0 1.0 1:17.0 2:0.0 3:0.0 4:0.0 5:0.0 6:2.0 7:24.0 8:0.916666667 9:4.0 10:7.0 11:0.0 12:5.0 13:4.0 14:1.0 15:4.0 16:1.0 17:1.0 18:7.0 19:4.0 20:0.0 21:3.0 22:1.0 23:13.0 24:24.0 
0.0 0.0 0.0 0.0 1.0 1:21.0 2:0.0 3:0.0 4:0.0 5:0.0 6:1.0 7:27.0 8:0.925925926 9:4.0 10:5.0 11:0.0 12:6.0 13:3.0 14:3.0 15:1.0 16:2.0 17:5.0 18:10.0 19:4.0 20:0.0 21:1.0 22:4.0 23:13.0 24:27.0 
0.4155008471463288 0.666994568716273 0.31846337776608125 0.9415002218121773 1.0 1:21.0 2:2.0 3:0.0 4:1.0 5:0.0 6:0.0 7:27.0 8:0.962962963 9:5.0 10:7.0 11:0.0 12:3.0 13:6.0 14:3.0 15:2.0 16:3.0 17:2.0 18:6.0 19:5.0 20:2.0 21:0.0 22:2.0 23:11.0 24:27.0 
0.7095531641331552 1.0 0.5120694908393735 0.9553858226140947 1.0 1:20.0 2:0.0 3:0.0 4:0.0 5:0.0 6:1.0 7:23.0 8:0.869565217 9:3.0 10:6.0 11:0.0 12:2.0 13:5.0 14:3.0 15:1.0 16:2.0 17:3.0 18:10.0 19:6.0 20:1.0 21:1.0 22:3.0 23:21.0 24:23.0 
0.0 0.0 0.0 0.5205076066338749 1.0 1:19.0 2:0.0 3:0.0 4:1.0 5:0.0 6:2.0 7:25.0 8:0.92 9:4.0 10:4.0 11:1.0 12:5.0 13:1.0 14:4.0 15:3.0 16:0.0 17:2.0 18:7.0 19:4.0 20:2.0 21:1.0 22:1.0 23:13.0 24:25.0 
0.07924171181649596 0.25786728724012764 0.3472140514769948 1.0 1.0 1:19.0 2:1.0 3:0.0 4:0.0 5:0.0 6:2.0 7:24.0 8:0.958333333 9:4.0 10:5.0 11:3.0 12:8.0 13:2.0 14:5.0 15:0.0 16:0.0 17:4.0 18:9.0 19:3.0 20:0.0 21:0.0 22:2.0 23:11.0 24:24.0 
0.5602708141589534 0.2537083784849201 0.1591492866227217 0.1597638944375755 1.0 1:24.0 2:0.0 3:0.0 4:0.0 5:0.0 6:0.0 7:27.0 8:0.888888889 9:3.0 10:8.0 11:1.0 12:7.0 13:5.0 14:0.0 15:0.0 16:3.0 17:2.0 18:10.0 19:7.0 20:0.0 21:0.0 22:1.0 23:19.0 24:27.0 
0.0 0.0 0.031527905667140595 0.8696404663706302 1.0 1:18.0 2:0.0 3:0.0 4:0.0 5:0.0 6:2.0 7:24.0 8:0.916666667 9:6.0 10:3.0 11:1.0 12:6.0 13:4.0 14:4.0 15:1.0 16:1.0 17:1.0 18:9.0 19:3.0 20:1.0 21:0.0 22:2.0 23:13.0 24:24.0 
0.0 0.0 0.0 1.0 1.0 1:19.0 2:0.0 3:0.0 4:0.0 5:1.0 6:1.0 7:27.0 8:1.0 9:4.0 10:4.0 11:3.0 12:9.0 13:3.0 14:2.0 15:1.0 16:0.0 17:4.0 18:8.0 19:3.0 20:0.0 21:1.0 22:3.0 23:12.0 24:27.0 
0.25122265239136865 0.43207938259687817 0.8958065861214318 1.0 1.0 1:15.0 2:0.0 3:0.0 4:0.0 5:0.0 6:3.0 7:23.0 8:0.826086957 9:4.0 10:4.0 11:1.0 12:6.0 13:2.0 14:2.0 15:0.0 16:1.0 17:1.0 18:8.0 19:3.0 20:1.0 21:0.0 22:2.0 23:14.0 24:23.0 
0.7166706011842052 0.9906199192471918 0.9154418602084482 1.0 1.0 1:14.0 2:0.0 3:0.0 4:0.0 5:0.0 6:3.0 7:21.0 8:1.0 9:5.0 10:4.0 11:0.0 12:7.0 13:6.0 14:1.0 15:0.0 16:0.0 17:2.0 18:6.0 19:8.0 20:1.0 21:0.0 22:2.0 23:15.0 24:21.0 
0.0 0.0 0.0 1.0 1.0 1:17.0 2:0.0 3:0.0 4:0.0 5:0.0 6:2.0 7:23.0 8:0.913043478 9:5.0 10:6.0 11:2.0 12:6.0 13:5.0 14:2.0 15:1.0 16:0.0 17:3.0 18:8.0 19:5.0 20:0.0 21:1.0 22:3.0 23:16.0 24:23.0 
0.09065266557201963 0.17544087850110512 0.08055650543136383 0.7458876830047018 0.9555702626961295 1:13.0 2:0.0 3:0.0 4:0.0 5:1.0 6:2.0 7:24.0 8:0.875 9:4.0 10:1.0 11:3.0 12:10.0 13:3.0 14:1.0 15:0.0 16:0.0 17:4.0 18:13.0 19:2.0 20:0.0 21:0.0 22:4.0 23:11.0 24:24.0 
0.3498082026918635 0.318484594094153 0.10224165183479861 0.9864603723213606 1.0 1:21.0 2:0.0 3:0.0 4:0.0 5:1.0 6:0.0 7:24.0 8:0.833333333 9:4.0 10:8.0 11:0.0 12:4.0 13:5.0 14:1.0 15:1.0 16:3.0 17:4.0 18:8.0 19:7.0 20:1.0 21:0.0 22:1.0 23:16.0 24:24.0 
0.0 0.0 0.0 1.0 1.0 1:18.0 2:1.0 3:0.0 4:0.0 5:1.0 6:1.0 7:24.0 8:0.958333333 9:5.0 10:5.0 11:0.0 12:5.0 13:5.0 14:2.0 15:2.0 16:1.0 17:2.0 18:9.0 19:5.0 20:0.0 21:1.0 22:2.0 23:14.0 24:24.0 
0.059101401030464386 0.12213103040332754 0.715165216095038 1.0 1.0 1:16.0 2:0.0 3:0.0 4:0.0 5:0.0 6:3.0 7:23.0 8:0.913043478 9:6.0 10:2.0 11:0.0 12:7.0 13:3.0 14:4.0 15:1.0 16:0.0 17:3.0 18:9.0 19:4.0 20:0.0 21:1.0 22:3.0 23:9.0 24:23.0 
0.21263040904330188 0.3956649726029433 0.31233884434044495 1.0 1.0 1:19.0 2:1.0 3:0.0 4:1.0 5:0.0 6:1.0 7:24.0 8:0.916666667 9:4.0 10:7.0 11:0.0 12:4.0 13:6.0 14:1.0 15:0.0 16:2.0 17:3.0 18:8.0 19:8.0 20:0.0 21:0.0 22:1.0 23:12.0 24:24.0 
0.0 0.0 0.0 0.24610903567686912 1.0 1:24.0 2:1.0 3:0.0 4:0.0 5:0.0 6:0.0 7:28.0 8:0.821428571 9:4.0 10:5.0 11:0.0 12:6.0 13:3.0 14:3.0 15:1.0 16:3.0 17:6.0 18:10.0 19:3.0 20:0.0 21:1.0 22:4.0 23:11.0 24:28.0 
0.0 0.0 0.0 0.0 0.6405924825316569 1:29.0 2:0.0 3:0.0 4:0.0 5:0.0 6:0.0 7:32.0 8:0.90625 9:4.0 10:3.0 11:2.0 12:11.0 13:3.0 14:1.0 15:1.0 16:0.0 17:3.0 18:11.0 19:5.0 20:0.0 21:0.0 22:4.0 23:15.0 24:32.0 
0.5343928959565123 0.816143357365354 0.41758686300577086 0.4237509483839593 1.0 1:21.0 2:0.0 3:0.0 4:0.0 5:0.0 6:0.0 7:31.0 8:0.870967742 9:4.0 10:5.0 11:11.0 12:11.0 13:5.0 14:0.0 15:0.0 16:0.0 17:3.0 18:11.0 19:5.0 20:0.0 21:0.0 22:3.0 23:18.0 24:31.0 
0.0 0.0 0.0 0.6554403232694149 1.0 1:24.0 2:0.0 3:0.0 4:0.0 5:0.0 6:1.0 7:27.0 8:0.888888889 9:4.0 10:4.0 11:3.0 12:5.0 13:5.0 14:2.0 15:0.0 16:1.0 17:3.0 18:8.0 19:7.0 20:0.0 21:0.0 22:4.0 23:16.0 24:27.0 
0.0 0.0 0.0 0.0032408977210113877 1.0 1:21.0 2:0.0 3:0.0 4:0.0 5:0.0 6:1.0 7:27.0 8:0.888888889 9:5.0 10:2.0 11:3.0 12:9.0 13:3.0 14:5.0 15:0.0 16:0.0 17:4.0 18:10.0 19:4.0 20:0.0 21:0.0 22:4.0 23:16.0 24:27.0 
0.0 0.0 0.0 0.0 1.0 1:25.0 2:1.0 3:0.0 4:0.0 5:0.0 6:0.0 7:29.0 8:0.931034483 9:4.0 10:3.0 11:2.0 12:8.0 13:3.0 14:4.0 15:2.0 16:1.0 17:5.0 18:12.0 19:4.0 20:0.0 21:1.0 22:5.0 23:10.0 24:29.0 
0.8965362909135084 1.0 0.6468732256033313 0.6450588711233902 0.8414502184919854 1:22.0 2:1.0 3:0.0 4:2.0 5:0.0 6:0.0 7:34.0 8:0.705882353 9:4.0 10:1.0 11:3.0 12:9.0 13:1.0 14:1.0 15:3.0 16:0.0 17:2.0 18:10.0 19:1.0 20:0.0 21:3.0 22:8.0 23:7.0 24:34.0 
0.0 0.0 0.0 0.9340804115740837 1.0 1:21.0 2:1.0 3:0.0 4:0.0 5:0.0 6:1.0 7:28.0 8:0.928571429 9:4.0 10:3.0 11:4.0 12:9.0 13:4.0 14:2.0 15:1.0 16:0.0 17:2.0 18:10.0 19:4.0 20:1.0 21:0.0 22:3.0 23:12.0 24:28.0 
0.053602796707681304 0.0 0.0 0.0 0.6070673358900192 1:26.0 2:0.0 3:0.0 4:0.0 5:0.0 6:0.0 7:31.0 8:0.935483871 9:4.0 10:7.0 11:2.0 12:8.0 13:4.0 14:1.0 15:3.0 16:0.0 17:4.0 18:7.0 19:8.0 20:1.0 21:2.0 22:4.0 23:14.0 24:31.0 
0.0 0.0 0.0 0.0 1.0 1:26.0 2:0.0 3:0.0 4:0.0 5:0.0 6:0.0 7:30.0 8:0.9 9:4.0 10:6.0 11:0.0 12:6.0 13:4.0 14:3.0 15:2.0 16:2.0 17:3.0 18:8.0 19:5.0 20:2.0 21:2.0 22:2.0 23:13.0 24:30.0 
0.0 0.0 0.0 0.0 0.7069434188702213 1:24.0 2:1.0 3:0.0 4:0.0 5:0.0 6:0.0 7:29.0 8:0.896551724 9:4.0 10:4.0 11:0.0 12:5.0 13:3.0 14:4.0 15:2.0 16:1.0 17:5.0 18:11.0 19:4.0 20:1.0 21:1.0 22:5.0 23:18.0 24:29.0 
0.0 0.0 0.0 0.0 0.7742207673304977 1:26.0 2:0.0 3:0.0 4:0.0 5:0.0 6:0.0 7:32.0 8:0.84375 9:4.0 10:5.0 11:0.0 12:7.0 13:4.0 14:2.0 15:2.0 16:2.0 17:3.0 18:11.0 19:5.0 20:0.0 21:0.0 22:2.0 23:10.0 24:32.0 
0.2661719551137022 0.17991423184780445 0.03403976115086612 0.18846523029008583 0.8171081217487086 1:22.0 2:0.0 3:0.0 4:0.0 5:0.0 6:0.0 7:27.0 8:0.925925926 9:5.0 10:5.0 11:1.0 12:6.0 13:6.0 14:3.0 15:1.0 16:2.0 17:3.0 18:13.0 19:7.0 20:0.0 21:1.0 22:3.0 23:17.0 24:27.0 
0.19836478492325585 0.01794958451108353 0.006314889036341048 0.23136864559808426 1.0 1:19.0 2:0.0 3:0.0 4:1.0 5:0.0 6:1.0 7:30.0 8:0.866666667 9:3.0 10:4.0 11:4.0 12:7.0 13:4.0 14:0.0 15:2.0 16:0.0 17:2.0 18:8.0 19:7.0 20:0.0 21:1.0 22:2.0 23:11.0 24:30.0 
0.0 0.0 0.0 0.0 0.3464551788678594 1:26.0 2:0.0 3:0.0 4:0.0 5:0.0 6:0.0 7:31.0 8:0.870967742 9:4.0 10:8.0 11:1.0 12:4.0 13:7.0 14:2.0 15:1.0 16:2.0 17:3.0 18:7.0 19:9.0 20:1.0 21:0.0 22:2.0 23:11.0 24:31.0 
0.0 0.0 0.0 0.0 1.0 1:22.0 2:0.0 3:0.0 4:0.0 5:1.0 6:0.0 7:32.0 8:0.875 9:4.0 10:3.0 11:3.0 12:9.0 13:2.0 14:4.0 15:0.0 16:0.0 17:4.0 18:13.0 19:2.0 20:0.0 21:0.0 22:4.0 23:13.0 24:32.0 
0.0 0.0 0.0 0.0 0.28838008833596906 1:26.0 2:0.0 3:0.0 4:0.0 5:1.0 6:0.0 7:33.0 8:0.878787879 9:3.0 10:5.0 11:0.0 12:5.0 13:5.0 14:3.0 15:1.0 16:1.0 17:2.0 18:9.0 19:4.0 20:0.0 21:1.0 22:2.0 23:10.0 24:33.0 
0.0 0.08831653915905194 0.07907310710857414 0.46534279991973065 1.0 1:24.0 2:0.0 3:0.0 4:0.0 5:0.0 6:1.0 7:27.0 8:0.925925926 9:4.0 10:3.0 11:4.0 12:9.0 13:3.0 14:5.0 15:0.0 16:0.0 17:4.0 18:10.0 19:4.0 20:0.0 21:0.0 22:4.0 23:15.0 24:27.0 
0.0 0.0 0.0 0.0 0.09418791897286392 1:26.0 2:1.0 3:0.0 4:0.0 5:0.0 6:0.0 7:29.0 8:0.827586207 9:4.0 10:5.0 11:4.0 12:9.0 13:4.0 14:2.0 15:0.0 16:0.0 17:5.0 18:13.0 19:5.0 20:0.0 21:0.0 22:4.0 23:14.0 24:29.0 
0.36209655056543394 0.5566900350039652 0.2743614716664873 0.408425241956979 1.0 1:15.0 2:0.0 3:0.0 4:0.0 5:0.0 6:1.0 7:28.0 8:0.857142857 9:5.0 10:2.0 11:11.0 12:13.0 13:3.0 14:0.0 15:0.0 16:0.0 17:4.0 18:12.0 19:4.0 20:0.0 21:0.0 22:4.0 23:12.0 24:28.0 
0.0 0.0 0.0 0.0 0.10316489330368075 1:25.0 2:1.0 3:0.0 4:0.0 5:0.0 6:0.0 7:29.0 8:0.896551724 9:4.0 10:10.0 11:1.0 12:7.0 13:5.0 14:3.0 15:2.0 16:0.0 17:1.0 18:6.0 19:8.0 20:2.0 21:0.0 22:1.0 23:20.0 24:29.0 
0.9912411868670551 0.3721858707163841 0.094547306422333 0.06538657780108648 0.0 1:23.0 2:0.0 3:0.0 4:0.0 5:0.0 6:0.0 7:31.0 8:0.967741935 9:4.0 10:7.0 11:4.0 12:10.0 13:4.0 14:5.0 15:0.0 16:0.0 17:4.0 18:14.0 19:5.0 20:0.0 21:0.0 22:3.0 23:14.0 24:31.0 
0.7831085188232655 0.49545835190298 0.22120307194618996 0.2220386218982639 0.4483331322736992 1:21.0 2:0.0 3:0.0 4:0.0 5:0.0 6:0.0 7:32.0 8:0.90625 9:4.0 10:7.0 11:4.0 12:6.0 13:7.0 14:4.0 15:1.0 16:1.0 17:2.0 18:7.0 19:10.0 20:1.0 21:0.0 22:1.0 23:14.0 24:32.0 
0.4911292302235318 0.6742319179061464 0.3041110759137987 0.28905532158980335 0.6291448854677149 1:22.0 2:0.0 3:0.0 4:0.0 5:0.0 6:0.0 7:29.0 8:0.862068966 9:4.0 10:8.0 11:2.0 12:6.0 13:6.0 14:4.0 15:1.0 16:1.0 17:0.0 18:11.0 19:8.0 20:1.0 21:1.0 22:0.0 23:18.0 24:29.0 
0.8801401866799654 0.6224306294433678 0.3046445487279025 0.47744558111718693 1.0 1:22.0 2:1.0 3:0.0 4:0.0 5:0.0 6:1.0 7:29.0 8:0.793103448 9:4.0 10:1.0 11:0.0 12:11.0 13:1.0 14:2.0 15:0.0 16:0.0 17:6.0 18:15.0 19:2.0 20:0.0 21:0.0 22:4.0 23:13.0 24:29.0 
0.0 0.0 0.0 0.0 0.39073470507470986 1:28.0 2:0.0 3:0.0 4:0.0 5:0.0 6:0.0 7:32.0 8:0.875 9:4.0 10:5.0 11:0.0 12:10.0 13:3.0 14:4.0 15:0.0 16:0.0 17:3.0 18:13.0 19:6.0 20:0.0 21:0.0 22:3.0 23:13.0 24:32.0 
0.0 0.0 0.0 0.0 0.12455477603540208 1:26.0 2:0.0 3:0.0 4:0.0 5:0.0 6:0.0 7:31.0 8:0.935483871 9:4.0 10:6.0 11:6.0 12:9.0 13:4.0 14:4.0 15:1.0 16:0.0 17:3.0 18:11.0 19:5.0 20:1.0 21:3.0 22:2.0 23:12.0 24:31.0 
0.3059210833616174 0.6664948366947703 0.33928453457029856 0.3429732308867544 0.41704831902446665 1:26.0 2:0.0 3:0.0 4:0.0 5:0.0 6:0.0 7:31.0 8:0.870967742 9:4.0 10:5.0 11:7.0 12:9.0 13:3.0 14:4.0 15:2.0 16:0.0 17:2.0 18:15.0 19:3.0 20:1.0 21:1.0 22:2.0 23:12.0 24:31.0 
0.38622550063014854 0.506735080242801 0.26198365898033166 0.26378418735870074 0.33201742791775296 1:15.0 2:0.0 3:0.0 4:0.0 5:0.0 6:0.0 7:33.0 8:1.0 9:4.0 10:4.0 11:15.0 12:13.0 13:2.0 14:5.0 15:0.0 16:0.0 17:3.0 18:10.0 19:3.0 20:2.0 21:0.0 22:2.0 23:12.0 24:33.0 
0.1375636255061854 0.3414980050153593 0.16025154939722472 0.1553663460835929 0.7795369927086494 1:25.0 2:0.0 3:0.0 4:0.0 5:0.0 6:0.0 7:29.0 8:0.862068966 9:4.0 10:7.0 11:0.0 12:4.0 13:6.0 14:3.0 15:4.0 16:1.0 17:4.0 18:4.0 19:10.0 20:1.0 21:1.0 22:1.0 23:17.0 24:29.0 
0.0 0.0 0.0 0.0 0.06256422742339243 1:25.0 2:0.0 3:0.0 4:0.0 5:0.0 6:0.0 7:29.0 8:0.965517241 9:5.0 10:6.0 11:3.0 12:7.0 13:5.0 14:4.0 15:1.0 16:0.0 17:5.0 18:12.0 19:7.0 20:1.0 21:0.0 22:3.0 23:16.0 24:29.0 
0.14086636491533386 0.0 0.0 0.0 0.4862229491769744 1:24.0 2:0.0 3:0.0 4:0.0 5:0.0 6:0.0 7:30.0 8:0.8 9:4.0 10:6.0 11:0.0 12:4.0 13:6.0 14:0.0 15:5.0 16:1.0 17:2.0 18:7.0 19:6.0 20:1.0 21:2.0 22:4.0 23:17.0 24:30.0 
0.0 0.0 0.0 0.318021247855065 0.5620718223505841 1:23.0 2:0.0 3:0.0 4:0.0 5:1.0 6:0.0 7:28.0 8:0.928571429 9:4.0 10:2.0 11:0.0 12:10.0 13:5.0 14:1.0 15:2.0 16:0.0 17:3.0 18:12.0 19:6.0 20:0.0 21:2.0 22:4.0 23:16.0 24:28.0 
0.0 0.0 0.0 0.1511044605802156 1.0 1:19.0 2:1.0 3:0.0 4:1.0 5:0.0 6:1.0 7:27.0 8:0.925925926 9:4.0 10:5.0 11:0.0 12:6.0 13:6.0 14:1.0 15:4.0 16:0.0 17:3.0 18:7.0 19:6.0 20:0.0 21:2.0 22:3.0 23:11.0 24:27.0 
0.0 0.0 0.0 0.12747812826326083 1.0 1:24.0 2:0.0 3:0.0 4:1.0 5:0.0 6:0.0 7:28.0 8:0.821428571 9:4.0 10:7.0 11:0.0 12:8.0 13:4.0 14:2.0 15:0.0 16:1.0 17:6.0 18:12.0 19:4.0 20:0.0 21:0.0 22:4.0 23:13.0 24:28.0 
0.0 0.0 0.0 0.036340216403528185 1.0 1:25.0 2:0.0 3:0.0 4:0.0 5:1.0 6:0.0 7:29.0 8:0.931034483 9:5.0 10:3.0 11:0.0 12:9.0 13:5.0 14:3.0 15:0.0 16:1.0 17:4.0 18:13.0 19:4.0 20:0.0 21:0.0 22:4.0 23:11.0 24:29.0 
0.28329178320850906 0.4591900240282256 0.23668179280788673 0.22632157401685674 0.6714278104137739 1:27.0 2:0.0 3:0.0 4:0.0 5:0.0 6:0.0 7:31.0 8:0.774193548 9:4.0 10:1.0 11:2.0 12:9.0 13:2.0 14:4.0 15:0.0 16:1.0 17:5.0 18:17.0 19:1.0 20:0.0 21:0.0 22:6.0 23:10.0 24:31.0 
0.0 0.0 0.0 0.0 1.0 1:27.0 2:0.0 3:0.0 4:0.0 5:0.0 6:0.0 7:31.0 8:0.838709677 9:5.0 10:6.0 11:1.0 12:10.0 13:6.0 14:4.0 15:1.0 16:0.0 17:2.0 18:8.0 19:8.0 20:0.0 21:0.0 22:1.0 23:13.0 24:31.0 
0.0 0.0 0.0 0.0 1.0 1:24.0 2:0.0 3:1.0 4:0.0 5:0.0 6:0.0 7:27.0 8:0.925925926 9:4.0 10:5.0 11:1.0 12:5.0 13:6.0 14:1.0 15:3.0 16:1.0 17:4.0 18:8.0 19:7.0 20:2.0 21:1.0 22:4.0 23:18.0 24:27.0 
0.42450149662181336 0.28597282649475975 0.14753671102967492 0.32590945503867225 1.0 1:18.0 2:0.0 3:0.0 4:0.0 5:0.0 6:1.0 7:30.0 8:0.833333333 9:4.0 10:4.0 11:8.0 12:6.0 13:4.0 14:1.0 15:2.0 16:0.0 17:6.0 18:10.0 19:4.0 20:0.0 21:1.0 22:4.0 23:10.0 24:30.0 
0.0 0.0 0.0 0.0 0.03337195901381095 1:27.0 2:0.0 3:0.0 4:0.0 5:0.0 6:0.0 7:31.0 8:0.870967742 9:4.0 10:5.0 11:1.0 12:5.0 13:4.0 14:3.0 15:0.0 16:1.0 17:6.0 18:11.0 19:5.0 20:0.0 21:1.0 22:4.0 23:13.0 24:31.0 
0.0 0.0 0.0 0.0 1.0 1:24.0 2:0.0 3:0.0 4:0.0 5:0.0 6:1.0 7:29.0 8:0.896551724 9:5.0 10:4.0 11:0.0 12:9.0 13:3.0 14:4.0 15:1.0 16:0.0 17:4.0 18:11.0 19:4.0 20:0.0 21:1.0 22:4.0 23:10.0 24:29.0 
0.0 0.0 0.0 0.0 1.0 1:25.0 2:1.0 3:1.0 4:0.0 5:0.0 6:0.0 7:29.0 8:0.896551724 9:5.0 10:3.0 11:3.0 12:9.0 13:3.0 14:4.0 15:2.0 16:0.0 17:4.0 18:12.0 19:3.0 20:0.0 21:1.0 22:4.0 23:13.0 24:29.0 
0.0 0.0 0.0 0.0 1.0 1:28.0 2:0.0 3:0.0 4:0.0 5:0.0 6:0.0 7:30.0 8:0.933333333 9:4.0 10:6.0 11:1.0 12:8.0 13:5.0 14:1.0 15:1.0 16:1.0 17:5.0 18:9.0 19:6.0 20:0.0 21:1.0 22:3.0 23:14.0 24:30.0 
0.6228975215086412 0.36039388539615747 0.19467613364622197 0.19829759966793464 0.3565015292404265 1:24.0 2:0.0 3:0.0 4:0.0 5:0.0 6:0.0 7:32.0 8:0.8125 9:4.0 10:3.0 11:7.0 12:12.0 13:2.0 14:2.0 15:0.0 16:0.0 17:6.0 18:12.0 19:2.0 20:0.0 21:0.0 22:6.0 23:15.0 24:32.0 
0.45691082650984916 0.3193828466942433 0.1670671555133622 0.39810592607818557 1.0 1:21.0 2:0.0 3:0.0 4:0.0 5:0.0 6:1.0 7:28.0 8:0.892857143 9:4.0 10:3.0 11:9.0 12:9.0 13:3.0 14:2.0 15:0.0 16:0.0 17:5.0 18:13.0 19:2.0 20:1.0 21:0.0 22:6.0 23:10.0 24:28.0 
0.0 0.0 0.0 0.0 0.7033622619681638 1:27.0 2:0.0 3:0.0 4:1.0 5:0.0 6:0.0 7:32.0 8:0.75 9:4.0 10:3.0 11:0.0 12:9.0 13:2.0 14:5.0 15:1.0 16:0.0 17:5.0 18:11.0 19:2.0 20:1.0 21:1.0 22:5.0 23:11.0 24:32.0 
0.5506869048783574 0.3796275522355052 0.199435860057816 0.2068330814135885 0.7766580521071814 1:25.0 2:1.0 3:0.0 4:0.0 5:0.0 6:0.0 7:33.0 8:0.818181818 9:3.0 10:2.0 11:3.0 12:11.0 13:4.0 14:4.0 15:1.0 16:0.0 17:1.0 18:14.0 19:3.0 20:1.0 21:1.0 22:1.0 23:13.0 24:33.0 
0.0 0.0 0.0 0.0 0.12074827203276561 1:26.0 2:0.0 3:0.0 4:0.0 5:0.0 6:0.0 7:32.0 8:0.8125 9:4.0 10:3.0 11:5.0 12:7.0 13:5.0 14:5.0 15:0.0 16:0.0 17:5.0 18:11.0 19:4.0 20:0.0 21:0.0 22:5.0 23:12.0 24:32.0 
0.6342543791961257 0.865657845140182 0.4396745845731092 0.43905609644193255 0.47498387116595236 1:21.0 2:0.0 3:0.0 4:0.0 5:0.0 6:0.0 7:36.0 8:0.777777778 9:4.0 10:2.0 11:9.0 12:9.0 13:4.0 14:0.0 15:1.0 16:0.0 17:3.0 18:10.0 19:6.0 20:0.0 21:0.0 22:4.0 23:10.0 24:36.0 
0.2663420324608015 0.4019632315964355 0.18399185284593053 0.29850098440089184 1.0 1:25.0 2:2.0 3:0.0 4:0.0 5:0.0 6:0.0 7:29.0 8:0.862068966 9:4.0 10:7.0 11:0.0 12:6.0 13:6.0 14:4.0 15:0.0 16:1.0 17:4.0 18:5.0 19:9.0 20:2.0 21:2.0 22:1.0 23:15.0 24:29.0 
0.0 0.0 0.0 0.0 1.0 1:25.0 2:1.0 3:0.0 4:1.0 5:0.0 6:0.0 7:31.0 8:0.774193548 9:4.0 10:3.0 11:0.0 12:7.0 13:5.0 14:3.0 15:0.0 16:1.0 17:1.0 18:10.0 19:7.0 20:1.0 21:0.0 22:2.0 23:12.0 24:31.0 
0.36682460987331056 0.2278501535784043 0.06607521226116728 0.23848030658182384 1.0 1:22.0 2:0.0 3:0.0 4:0.0 5:0.0 6:1.0 7:28.0 8:0.821428571 9:4.0 10:5.0 11:0.0 12:7.0 13:5.0 14:3.0 15:5.0 16:0.0 17:2.0 18:8.0 19:4.0 20:0.0 21:3.0 22:1.0 23:13.0 24:28.0 
0.6778991359831137 0.9028350509823398 0.3792176067665623 0.370411441702206 0.7125940089958742 1:21.0 2:0.0 3:1.0 4:0.0 5:0.0 6:0.0 7:30.0 8:0.766666667 9:4.0 10:3.0 11:2.0 12:7.0 13:2.0 14:3.0 15:4.0 16:0.0 17:4.0 18:15.0 19:2.0 20:0.0 21:2.0 22:4.0 23:16.0 24:30.0 
0.425445723794206 0.6074703295706061 0.31960593805260656 0.5723132322442931 1.0 1:27.0 2:0.0 3:0.0 4:0.0 5:0.0 6:1.0 7:30.0 8:0.866666667 9:5.0 10:4.0 11:0.0 12:9.0 13:4.0 14:2.0 15:1.0 16:0.0 17:5.0 18:9.0 19:3.0 20:0.0 21:1.0 22:5.0 23:8.0 24:30.0 
0.0 0.0 0.0 0.679691776757441 1.0 1:22.0 2:1.0 3:0.0 4:2.0 5:0.0 6:0.0 7:28.0 8:0.857142857 9:5.0 10:3.0 11:1.0 12:8.0 13:4.0 14:2.0 15:1.0 16:0.0 17:5.0 18:10.0 19:5.0 20:1.0 21:0.0 22:6.0 23:11.0 24:28.0 
0.5630082085144951 0.2610302243414854 0.18286757717998336 0.2557603201603155 0.9919183817435778 1:22.0 2:0.0 3:0.0 4:0.0 5:0.0 6:1.0 7:31.0 8:0.903225806 9:4.0 10:3.0 11:4.0 12:8.0 13:3.0 14:7.0 15:0.0 16:0.0 17:3.0 18:8.0 19:3.0 20:0.0 21:0.0 22:3.0 23:13.0 24:31.0 
0.0 0.0 0.0 0.0 0.900235294824933 1:22.0 2:0.0 3:0.0 4:0.0 5:0.0 6:1.0 7:30.0 8:0.866666667 9:4.0 10:3.0 11:5.0 12:11.0 13:3.0 14:1.0 15:0.0 16:0.0 17:2.0 18:11.0 19:3.0 20:0.0 21:0.0 22:2.0 23:15.0 24:30.0 
0.30476554659158045 0.6174625025102779 0.3232354100510712 0.7210335305178606 1.0 1:17.0 2:0.0 3:0.0 4:1.0 5:0.0 6:1.0 7:28.0 8:0.928571429 9:5.0 10:1.0 11:9.0 12:10.0 13:2.0 14:4.0 15:1.0 16:0.0 17:4.0 18:9.0 19:4.0 20:0.0 21:1.0 22:5.0 23:8.0 24:28.0 
0.08229896286374627 0.25106389329560685 0.14060680769695735 0.051765267353579975 0.908972114634936 1:26.0 2:1.0 3:0.0 4:0.0 5:0.0 6:0.0 7:29.0 8:0.931034483 9:4.0 10:7.0 11:0.0 12:8.0 13:4.0 14:2.0 15:0.0 16:1.0 17:7.0 18:10.0 19:4.0 20:0.0 21:0.0 22:6.0 23:15.0 24:29.0 
0.0 0.0 0.0 0.0 0.6225753939642508 1:25.0 2:0.0 3:0.0 4:0.0 5:0.0 6:0.0 7:28.0 8:0.928571429 9:4.0 10:8.0 11:1.0 12:7.0 13:5.0 14:4.0 15:1.0 16:0.0 17:2.0 18:9.0 19:7.0 20:2.0 21:0.0 22:2.0 23:21.0 24:28.0 
0.4064590052750587 0.0 0.0 0.0 0.9423866210089087 1:21.0 2:0.0 3:0.0 4:0.0 5:0.0 6:0.0 7:30.0 8:0.966666667 9:4.0 10:7.0 11:4.0 12:7.0 13:6.0 14:1.0 15:1.0 16:1.0 17:3.0 18:8.0 19:7.0 20:2.0 21:1.0 22:2.0 23:17.0 24:30.0 
1.0 1.0 0.7350883660743495 0.7338932548384509 0.7937751475506016 1:31.0 2:0.0 3:0.0 4:0.0 5:0.0 6:0.0 7:42.0 8:0.761904762 9:4.0 10:5.0 11:0.0 12:8.0 13:5.0 14:1.0 15:3.0 16:1.0 17:5.0 18:14.0 19:6.0 20:0.0 21:1.0 22:5.0 23:12.0 24:7.0 
0.0 0.0 0.0 0.0 1.0 1:25.0 2:0.0 3:0.0 4:0.0 5:0.0 6:0.0 7:28.0 8:0.857142857 9:3.0 10:6.0 11:4.0 12:9.0 13:4.0 14:2.0 15:0.0 16:1.0 17:4.0 18:12.0 19:5.0 20:1.0 21:0.0 22:3.0 23:18.0 24:28.0 
0.0 0.0 0.0 0.0 0.47689184098480936 1:25.0 2:0.0 3:0.0 4:0.0 5:0.0 6:0.0 7:30.0 8:0.866666667 9:5.0 10:3.0 11:3.0 12:8.0 13:5.0 14:6.0 15:0.0 16:1.0 17:5.0 18:10.0 19:5.0 20:0.0 21:0.0 22:4.0 23:13.0 24:30.0 
0.0 0.0 0.0 0.0 1.0 1:23.0 2:0.0 3:0.0 4:1.0 5:0.0 6:0.0 7:29.0 8:0.931034483 9:4.0 10:5.0 11:0.0 12:8.0 13:6.0 14:1.0 15:2.0 16:1.0 17:3.0 18:11.0 19:7.0 20:0.0 21:0.0 22:3.0 23:11.0 24:29.0 
0.0 0.0 0.0 0.06393637507226514 1.0 1:23.0 2:0.0 3:0.0 4:2.0 5:0.0 6:0.0 7:28.0 8:0.75 9:4.0 10:7.0 11:0.0 12:7.0 13:5.0 14:1.0 15:2.0 16:0.0 17:2.0 18:8.0 19:9.0 20:0.0 21:1.0 22:2.0 23:17.0 24:28.0 
0.0475017612822984 0.0 0.017976657356318537 0.0 0.28959052248238637 1:26.0 2:0.0 3:0.0 4:0.0 5:0.0 6:0.0 7:33.0 8:0.848484848 9:4.0 10:3.0 11:0.0 12:7.0 13:7.0 14:4.0 15:0.0 16:1.0 17:3.0 18:9.0 19:9.0 20:1.0 21:0.0 22:2.0 23:12.0 24:33.0 
0.43659031200499687 0.6396757010286223 0.31900439371344236 0.2845468166704631 1.0 1:25.0 2:1.0 3:0.0 4:0.0 5:0.0 6:0.0 7:29.0 8:0.896551724 9:4.0 10:10.0 11:1.0 12:7.0 13:5.0 14:3.0 15:2.0 16:0.0 17:1.0 18:6.0 19:8.0 20:2.0 21:0.0 22:1.0 23:20.0 24:29.0 
0.46551569948976246 0.37898118521349816 0.2015738361289613 0.19746267606130596 0.4837918815705869 1:28.0 2:0.0 3:0.0 4:0.0 5:0.0 6:0.0 7:29.0 8:0.793103448 9:4.0 10:7.0 11:0.0 12:5.0 13:5.0 14:6.0 15:1.0 16:0.0 17:5.0 18:9.0 19:5.0 20:1.0 21:1.0 22:4.0 23:16.0 24:29.0 
0.2028501751113248 0.34072497650689626 0.13311942711214975 0.28591786771321787 0.4436587048833603 1:23.0 2:0.0 3:0.0 4:0.0 5:0.0 6:1.0 7:28.0 8:0.892857143 9:4.0 10:2.0 11:0.0 12:7.0 13:7.0 14:2.0 15:1.0 16:0.0 17:2.0 18:11.0 19:7.0 20:0.0 21:1.0 22:3.0 23:14.0 24:28.0 
0.0 0.0 0.0 0.0 0.6517240929682994 1:24.0 2:1.0 3:0.0 4:0.0 5:0.0 6:0.0 7:30.0 8:0.9 9:4.0 10:3.0 11:7.0 12:8.0 13:6.0 14:1.0 15:2.0 16:0.0 17:4.0 18:10.0 19:7.0 20:0.0 21:1.0 22:3.0 23:12.0 24:30.0 
0.0 0.0 0.0 0.0 1.0 1:26.0 2:1.0 3:0.0 4:0.0 5:0.0 6:0.0 7:29.0 8:0.827586207 9:4.0 10:5.0 11:4.0 12:9.0 13:4.0 14:2.0 15:0.0 16:0.0 17:5.0 18:13.0 19:5.0 20:0.0 21:0.0 22:4.0 23:14.0 24:29.0 
0.09777650850076691 0.0 0.0 0.0 0.0 1:27.0 2:0.0 3:0.0 4:0.0 5:0.0 6:0.0 7:32.0 8:0.75 9:4.0 10:3.0 11:0.0 12:6.0 13:3.0 14:6.0 15:2.0 16:0.0 17:5.0 18:12.0 19:3.0 20:0.0 21:1.0 22:6.0 23:14.0 24:32.0 
0.43990862546967885 0.7260041810694887 0.3619120087651309 0.35367440199643824 0.6550802118850965 1:17.0 2:0.0 3:0.0 4:0.0 5:0.0 6:0.0 7:31.0 8:1.0 9:4.0 10:4.0 11:15.0 12:12.0 13:3.0 14:5.0 15:0.0 16:0.0 17:3.0 18:10.0 19:4.0 20:2.0 21:0.0 22:2.0 23:12.0 24:31.0 
0.28887133307395296 0.4803002986172694 0.2403694229023513 0.23960452665798176 0.4505059697242748 1:26.0 2:0.0 3:0.0 4:0.0 5:0.0 6:0.0 7:32.0 8:0.78125 9:4.0 10:7.0 11:0.0 12:5.0 13:3.0 14:7.0 15:1.0 16:0.0 17:4.0 18:8.0 19:5.0 20:2.0 21:1.0 22:2.0 23:18.0 24:32.0 
0.27915449649494095 0.4296673332571333 0.21976059228678782 0.10627355845683291 0.7469284140446181 1:24.0 2:0.0 3:0.0 4:0.0 5:0.0 6:0.0 7:27.0 8:1.0 9:3.0 10:4.0 11:1.0 12:4.0 13:7.0 14:1.0 15:2.0 16:2.0 17:4.0 18:9.0 19:9.0 20:1.0 21:0.0 22:3.0 23:20.0 24:27.0 
0.7585208129743843 1.0 0.5615127140928263 0.6978787177170886 0.8757158382854389 1:25.0 2:0.0 3:0.0 4:0.0 5:0.0 6:1.0 7:31.0 8:0.838709677 9:4.0 10:2.0 11:1.0 12:11.0 13:5.0 14:2.0 15:1.0 16:0.0 17:0.0 18:6.0 19:9.0 20:1.0 21:1.0 22:0.0 23:11.0 24:31.0 
0.2698496544816481 0.043482651899113135 0.04960630106374258 0.04544956899900628 0.13166084112991505 1:27.0 2:0.0 3:0.0 4:0.0 5:0.0 6:0.0 7:34.0 8:0.882352941 9:4.0 10:3.0 11:5.0 12:9.0 13:5.0 14:6.0 15:0.0 16:0.0 17:4.0 18:9.0 19:5.0 20:0.0 21:0.0 22:3.0 23:10.0 24:34.0 
0.0 0.0 0.0 0.0 1.0 1:24.0 2:0.0 3:0.0 4:0.0 5:1.0 6:0.0 7:28.0 8:0.928571429 9:4.0 10:2.0 11:0.0 12:9.0 13:5.0 14:3.0 15:1.0 16:0.0 17:3.0 18:12.0 19:6.0 20:1.0 21:1.0 22:4.0 23:14.0 24:28.0 
0.06962887613272556 0.26957567509293917 0.17925488387643726 0.2661705044875232 1.0 1:16.0 2:0.0 3:0.0 4:1.0 5:0.0 6:1.0 7:32.0 8:0.875 9:4.0 10:3.0 11:3.0 12:10.0 13:3.0 14:2.0 15:1.0 16:0.0 17:1.0 18:11.0 19:4.0 20:0.0 21:1.0 22:3.0 23:11.0 24:32.0 
0.0 0.0 0.0 0.0 0.2267156969246726 1:27.0 2:0.0 3:0.0 4:0.0 5:0.0 6:0.0 7:34.0 8:0.764705882 9:4.0 10:1.0 11:1.0 12:11.0 13:3.0 14:2.0 15:1.0 16:0.0 17:5.0 18:15.0 19:3.0 20:0.0 21:0.0 22:5.0 23:9.0 24:34.0 
0.3220946160030114 0.07053652589559256 0.017373952881695617 0.3524462006958338 1.0 1:20.0 2:3.0 3:0.0 4:0.0 5:0.0 6:1.0 7:28.0 8:0.821428571 9:4.0 10:5.0 11:4.0 12:8.0 13:3.0 14:0.0 15:2.0 16:0.0 17:3.0 18:10.0 19:3.0 20:0.0 21:2.0 22:2.0 23:11.0 24:28.0 
0.3516416320948028 0.372435877487846 0.18517948636066178 0.6707261322872512 1.0 1:23.0 2:1.0 3:0.0 4:1.0 5:0.0 6:1.0 7:28.0 8:0.928571429 9:4.0 10:5.0 11:0.0 12:10.0 13:1.0 14:2.0 15:2.0 16:0.0 17:4.0 18:8.0 19:3.0 20:0.0 21:3.0 22:3.0 23:12.0 24:28.0 
0.13010800984781035 0.0 0.0 0.0 0.11034573427559131 1:23.0 2:1.0 3:0.0 4:0.0 5:0.0 6:0.0 7:30.0 8:0.866666667 9:5.0 10:5.0 11:0.0 12:8.0 13:5.0 14:4.0 15:0.0 16:0.0 17:3.0 18:12.0 19:6.0 20:1.0 21:0.0 22:3.0 23:17.0 24:30.0 
0.0876666510034491 0.3817873898353351 0.1755931077970628 0.3446764735356926 1.0 1:24.0 2:2.0 3:0.0 4:0.0 5:0.0 6:0.0 7:29.0 8:0.896551724 9:3.0 10:7.0 11:3.0 12:5.0 13:7.0 14:2.0 15:2.0 16:1.0 17:2.0 18:7.0 19:10.0 20:0.0 21:2.0 22:1.0 23:11.0 24:29.0 
0.0 0.0 0.0 0.0 0.11691941974930901 1:23.0 2:1.0 3:0.0 4:0.0 5:0.0 6:0.0 7:33.0 8:0.96969697 9:5.0 10:2.0 11:5.0 12:12.0 13:1.0 14:5.0 15:0.0 16:0.0 17:4.0 18:14.0 19:2.0 20:1.0 21:0.0 22:5.0 23:11.0 24:33.0 
0.0 0.0 0.0 0.0 0.2728667216222114 1:22.0 2:0.0 3:0.0 4:0.0 5:0.0 6:1.0 7:28.0 8:0.928571429 9:4.0 10:5.0 11:4.0 12:8.0 13:3.0 14:4.0 15:1.0 16:0.0 17:5.0 18:10.0 19:4.0 20:1.0 21:0.0 22:3.0 23:13.0 24:28.0 
0.6951167892818229 1.0 0.5048191544713195 0.47988748321989855 0.6773470833295874 1:23.0 2:1.0 3:0.0 4:0.0 5:0.0 6:0.0 7:29.0 8:0.724137931 9:4.0 10:1.0 11:10.0 12:10.0 13:1.0 14:3.0 15:0.0 16:0.0 17:8.0 18:16.0 19:1.0 20:0.0 21:0.0 22:8.0 23:11.0 24:29.0 
0.08865172008797198 0.04101431808067994 0.0 0.5556537097909954 1.0 1:22.0 2:0.0 3:0.0 4:0.0 5:0.0 6:1.0 7:26.0 8:0.846153846 9:4.0 10:6.0 11:2.0 12:5.0 13:7.0 14:2.0 15:2.0 16:0.0 17:3.0 18:7.0 19:7.0 20:1.0 21:0.0 22:2.0 23:20.0 24:26.0 
0.0 0.0 0.02108120218705902 0.0031560078734340453 1.0 1:23.0 2:1.0 3:0.0 4:0.0 5:0.0 6:0.0 7:33.0 8:0.96969697 9:5.0 10:2.0 11:5.0 12:12.0 13:1.0 14:5.0 15:0.0 16:0.0 17:4.0 18:14.0 19:2.0 20:1.0 21:0.0 22:5.0 23:11.0 24:33.0 
0.1118676038109725 0.13608913109009424 0.0 0.0 0.16457938642981254 1:23.0 2:0.0 3:0.0 4:0.0 5:0.0 6:0.0 7:30.0 8:0.866666667 9:5.0 10:5.0 11:2.0 12:8.0 13:5.0 14:2.0 15:5.0 16:0.0 17:2.0 18:10.0 19:5.0 20:1.0 21:1.0 22:1.0 23:16.0 24:30.0 
0.0 0.0 0.0 0.0 1.0 1:25.0 2:0.0 3:0.0 4:0.0 5:0.0 6:1.0 7:29.0 8:0.827586207 9:3.0 10:3.0 11:0.0 12:6.0 13:5.0 14:2.0 15:1.0 16:0.0 17:6.0 18:9.0 19:5.0 20:0.0 21:0.0 22:4.0 23:13.0 24:29.0 
0.1342174373315173 0.0 0.0 0.3371839534617185 1.0 1:20.0 2:1.0 3:0.0 4:0.0 5:0.0 6:1.0 7:28.0 8:0.821428571 9:5.0 10:3.0 11:1.0 12:8.0 13:2.0 14:4.0 15:0.0 16:0.0 17:5.0 18:14.0 19:2.0 20:1.0 21:0.0 22:5.0 23:15.0 24:28.0 
0.0 0.0 0.0 0.0 0.5834811585026736 1:24.0 2:1.0 3:0.0 4:0.0 5:0.0 6:0.0 7:31.0 8:0.903225806 9:6.0 10:5.0 11:2.0 12:10.0 13:3.0 14:5.0 15:2.0 16:0.0 17:4.0 18:10.0 19:4.0 20:2.0 21:1.0 22:3.0 23:10.0 24:31.0 
0.16550574209724137 0.6145299506663283 0.32535867110074534 0.32019687153225673 0.7950789319587268 1:27.0 2:0.0 3:0.0 4:0.0 5:0.0 6:0.0 7:31.0 8:0.838709677 9:5.0 10:4.0 11:0.0 12:13.0 13:3.0 14:3.0 15:0.0 16:0.0 17:4.0 18:11.0 19:8.0 20:0.0 21:0.0 22:4.0 23:12.0 24:31.0 
0.6911753247768875 1.0 0.5204330480969156 0.5192863803718486 0.5610215006559608 1:14.0 2:4.0 3:0.0 4:3.0 5:1.0 6:1.0 7:30.0 8:0.9 9:5.0 10:1.0 11:0.0 12:9.0 13:3.0 14:8.0 15:0.0 16:0.0 17:4.0 18:15.0 19:4.0 20:1.0 21:0.0 22:4.0 23:11.0 24:1.0 
0.6696390722505605 1.0 1.0 1.0 1.0 1:11.0 2:1.0 3:0.0 4:0.0 5:0.0 6:4.0 7:20.0 8:0.85 9:5.0 10:1.0 11:5.0 12:8.0 13:1.0 14:1.0 15:1.0 16:0.0 17:3.0 18:11.0 19:1.0 20:0.0 21:1.0 22:3.0 23:9.0 24:20.0 
0.0 0.0 0.0 0.0 1.0 1:19.0 2:0.0 3:0.0 4:0.0 5:0.0 6:2.0 7:24.0 8:0.916666667 9:4.0 10:6.0 11:2.0 12:6.0 13:5.0 14:2.0 15:1.0 16:0.0 17:4.0 18:8.0 19:5.0 20:0.0 21:1.0 22:4.0 23:17.0 24:24.0 
0.327887906154406 0.0 0.0 0.0 1.0 1:24.0 2:0.0 3:0.0 4:0.0 5:0.0 6:1.0 7:29.0 8:0.827586207 9:3.0 10:4.0 11:0.0 12:4.0 13:6.0 14:1.0 15:1.0 16:3.0 17:3.0 18:8.0 19:6.0 20:0.0 21:1.0 22:2.0 23:13.0 24:29.0 
0.9788307939376529 1.0 0.7003352022012908 0.7158095628650302 0.8124856465866849 1:21.0 2:0.0 3:0.0 4:0.0 5:0.0 6:1.0 7:36.0 8:0.916666667 9:5.0 10:5.0 11:9.0 12:12.0 13:4.0 14:3.0 15:0.0 16:0.0 17:5.0 18:13.0 19:5.0 20:1.0 21:0.0 22:4.0 23:15.0 24:14.0 
0.4744003257033784 0.4530608855097631 0.20276059167340266 0.8793404321304568 1.0 1:16.0 2:0.0 3:0.0 4:1.0 5:0.0 6:2.0 7:27.0 8:0.925925926 9:4.0 10:1.0 11:7.0 12:7.0 13:1.0 14:2.0 15:1.0 16:0.0 17:5.0 18:11.0 19:1.0 20:0.0 21:2.0 22:5.0 23:9.0 24:27.0 
0.38232123466674467 0.5379296238839525 0.4351816018857336 1.0 1.0 1:15.0 2:0.0 3:0.0 4:0.0 5:0.0 6:3.0 7:24.0 8:0.958333333 9:4.0 10:3.0 11:6.0 12:7.0 13:3.0 14:4.0 15:2.0 16:0.0 17:2.0 18:6.0 19:3.0 20:1.0 21:0.0 22:2.0 23:13.0 24:24.0 
0.9732829175425955 1.0 0.7327422802324902 0.8335834184181633 0.952961160053221 1:15.0 2:0.0 3:0.0 4:0.0 5:0.0 6:2.0 7:31.0 8:0.741935484 9:3.0 10:4.0 11:3.0 12:8.0 13:5.0 14:0.0 15:1.0 16:4.0 17:2.0 18:12.0 19:5.0 20:0.0 21:0.0 22:1.0 23:13.0 24:9.0 
0.5549777792138174 0.48853521873270433 0.2598769491357178 1.0 1.0 1:21.0 2:0.0 3:0.0 4:0.0 5:0.0 6:2.0 7:27.0 8:0.851851852 9:3.0 10:2.0 11:3.0 12:7.0 13:1.0 14:3.0 15:1.0 16:2.0 17:4.0 18:13.0 19:1.0 20:0.0 21:0.0 22:4.0 23:9.0 24:27.0 
0.0 0.23492646372976494 0.0 0.11947023490222423 0.06932806991394144 1:19.0 2:0.0 3:0.0 4:0.0 5:0.0 6:2.0 7:25.0 8:0.88 9:4.0 10:3.0 11:7.0 12:9.0 13:3.0 14:0.0 15:0.0 16:0.0 17:6.0 18:12.0 19:3.0 20:0.0 21:0.0 22:5.0 23:9.0 24:25.0 
0.0 0.0 0.27756909603095137 1.0 1.0 1:16.0 2:1.0 3:1.0 4:0.0 5:0.0 6:2.0 7:24.0 8:0.875 9:4.0 10:2.0 11:3.0 12:7.0 13:3.0 14:2.0 15:0.0 16:1.0 17:5.0 18:10.0 19:3.0 20:1.0 21:0.0 22:5.0 23:9.0 24:24.0 
0.0 0.0 0.0 0.7144733211876161 1.0 1:22.0 2:0.0 3:0.0 4:0.0 5:0.0 6:2.0 7:25.0 8:0.96 9:4.0 10:2.0 11:0.0 12:7.0 13:3.0 14:4.0 15:1.0 16:1.0 17:3.0 18:7.0 19:6.0 20:1.0 21:1.0 22:2.0 23:14.0 24:25.0 
0.7094083828789388 1.0 0.6671956037152532 0.8749091406103463 1.0 1:16.0 2:0.0 3:0.0 4:0.0 5:0.0 6:3.0 7:25.0 8:1.0 9:5.0 10:3.0 11:3.0 12:9.0 13:5.0 14:3.0 15:1.0 16:0.0 17:2.0 18:7.0 19:7.0 20:1.0 21:1.0 22:2.0 23:12.0 24:19.0 
0.33722559289617193 0.0 0.0 0.26662859950113565 1.0 1:18.0 2:0.0 3:0.0 4:0.0 5:0.0 6:2.0 7:28.0 8:0.928571429 9:4.0 10:2.0 11:4.0 12:11.0 13:2.0 14:4.0 15:0.0 16:0.0 17:3.0 18:11.0 19:2.0 20:0.0 21:0.0 22:3.0 23:10.0 24:28.0 
0.9774422451988749 1.0 0.7529742314795499 0.8099038822580499 0.9224007046469073 1:19.0 2:1.0 3:0.0 4:0.0 5:0.0 6:3.0 7:28.0 8:0.892857143 9:4.0 10:5.0 11:0.0 12:8.0 13:4.0 14:4.0 15:0.0 16:1.0 17:4.0 18:8.0 19:7.0 20:1.0 21:0.0 22:1.0 23:17.0 24:11.0 
0.0 0.0 0.0 0.0 1.0 1:19.0 2:1.0 3:0.0 4:0.0 5:0.0 6:2.0 7:24.0 8:0.958333333 9:4.0 10:3.0 11:5.0 12:7.0 13:3.0 14:3.0 15:0.0 16:1.0 17:5.0 18:10.0 19:3.0 20:2.0 21:1.0 22:5.0 23:11.0 24:24.0 
0.0 0.0 0.0 0.17525811723809712 1.0 1:21.0 2:0.0 3:0.0 4:0.0 5:0.0 6:1.0 7:27.0 8:0.851851852 9:4.0 10:7.0 11:2.0 12:7.0 13:5.0 14:1.0 15:0.0 16:2.0 17:4.0 18:10.0 19:5.0 20:0.0 21:0.0 22:4.0 23:11.0 24:27.0 
0.0 0.0 0.0 0.7093548566998572 1.0 1:19.0 2:0.0 3:0.0 4:0.0 5:0.0 6:2.0 7:24.0 8:0.916666667 9:4.0 10:6.0 11:2.0 12:6.0 13:5.0 14:2.0 15:1.0 16:0.0 17:4.0 18:8.0 19:5.0 20:0.0 21:1.0 22:4.0 23:17.0 24:24.0 
0.536654479818435 0.812313532162581 0.3852438441291682 1.0 0.6592686629280369 1:11.0 2:1.0 3:0.0 4:0.0 5:0.0 6:4.0 7:23.0 8:0.869565217 9:5.0 10:1.0 11:6.0 12:8.0 13:1.0 14:1.0 15:1.0 16:0.0 17:3.0 18:13.0 19:1.0 20:0.0 21:1.0 22:3.0 23:10.0 24:23.0 
0.0 0.0 0.05878836797068406 0.0 0.26362072480077514 1:14.0 2:0.0 3:0.0 4:1.0 5:0.0 6:4.0 7:26.0 8:0.923076923 9:4.0 10:3.0 11:2.0 12:7.0 13:2.0 14:2.0 15:1.0 16:0.0 17:2.0 18:10.0 19:2.0 20:0.0 21:1.0 22:2.0 23:8.0 24:26.0 
0.27925232025267616 0.4827307627723682 0.24494881496222987 1.0 1.0 1:19.0 2:1.0 3:0.0 4:2.0 5:0.0 6:1.0 7:25.0 8:0.84 9:3.0 10:5.0 11:0.0 12:5.0 13:4.0 14:1.0 15:0.0 16:3.0 17:5.0 18:8.0 19:4.0 20:0.0 21:0.0 22:3.0 23:15.0 24:25.0 
0.626743564402878 0.8568886139170125 0.4297529805506767 0.7681477590791241 0.9247064515599 1:14.0 2:0.0 3:0.0 4:0.0 5:0.0 6:3.0 7:27.0 8:0.703703704 9:4.0 10:5.0 11:5.0 12:9.0 13:3.0 14:1.0 15:0.0 16:0.0 17:2.0 18:9.0 19:3.0 20:0.0 21:0.0 22:1.0 23:7.0 24:27.0 
0.0 0.0 0.0 0.11002324970607696 1.0 1:18.0 2:1.0 3:0.0 4:0.0 5:0.0 6:2.0 7:27.0 8:0.814814815 9:4.0 10:2.0 11:3.0 12:8.0 13:3.0 14:3.0 15:0.0 16:0.0 17:3.0 18:12.0 19:4.0 20:0.0 21:0.0 22:3.0 23:11.0 24:27.0 
0.216673834713513 0.0 0.0 0.7701120498512316 1.0 1:21.0 2:0.0 3:0.0 4:0.0 5:0.0 6:2.0 7:28.0 8:0.75 9:4.0 10:2.0 11:1.0 12:7.0 13:3.0 14:3.0 15:0.0 16:1.0 17:2.0 18:10.0 19:5.0 20:0.0 21:1.0 22:2.0 23:10.0 24:28.0 
0.4603781751191936 0.2222958372633261 0.07378234710236095 1.0 1.0 1:19.0 2:0.0 3:0.0 4:0.0 5:0.0 6:2.0 7:27.0 8:0.888888889 9:5.0 10:1.0 11:4.0 12:9.0 13:1.0 14:5.0 15:0.0 16:0.0 17:5.0 18:9.0 19:2.0 20:0.0 21:0.0 22:6.0 23:10.0 24:27.0 
0.4416709467994113 0.35541569310955207 0.2022634090860264 0.49688172251764656 0.7458160311007311 1:20.0 2:1.0 3:0.0 4:1.0 5:0.0 6:1.0 7:30.0 8:0.833333333 9:4.0 10:1.0 11:2.0 12:4.0 13:4.0 14:3.0 15:2.0 16:2.0 17:3.0 18:9.0 19:5.0 20:0.0 21:1.0 22:2.0 23:9.0 24:30.0 
0.7435313034926953 1.0 1.0 1.0 1.0 1:16.0 2:0.0 3:0.0 4:0.0 5:0.0 6:3.0 7:21.0 8:0.952380952 9:4.0 10:4.0 11:0.0 12:2.0 13:6.0 14:2.0 15:0.0 16:2.0 17:4.0 18:5.0 19:7.0 20:1.0 21:0.0 22:3.0 23:12.0 24:21.0 
0.3063302570725295 0.046970127677807706 0.018052141512581176 0.053228378775396476 0.37744334717779354 1:21.0 2:0.0 3:0.0 4:0.0 5:0.0 6:2.0 7:27.0 8:0.925925926 9:4.0 10:2.0 11:0.0 12:8.0 13:3.0 14:4.0 15:2.0 16:0.0 17:1.0 18:10.0 19:5.0 20:1.0 21:0.0 22:1.0 23:13.0 24:27.0 
0.8018183952598065 0.9022312186571054 0.4252043751533153 0.5177028318133955 0.7507610465900701 1:15.0 2:0.0 3:0.0 4:2.0 5:0.0 6:3.0 7:27.0 8:0.777777778 9:4.0 10:3.0 11:0.0 12:8.0 13:3.0 14:1.0 15:0.0 16:2.0 17:1.0 18:12.0 19:3.0 20:0.0 21:0.0 22:1.0 23:11.0 24:27.0 
0.0 0.0 0.0 1.0 1.0 1:21.0 2:0.0 3:0.0 4:1.0 5:1.0 6:1.0 7:27.0 8:0.888888889 9:4.0 10:3.0 11:0.0 12:9.0 13:3.0 14:2.0 15:0.0 16:0.0 17:4.0 18:9.0 19:3.0 20:0.0 21:0.0 22:4.0 23:13.0 24:27.0 
0.30433051053094173 0.42609882922339715 0.455962555876385 0.7605013981947718 1.0 1:15.0 2:2.0 3:0.0 4:1.0 5:1.0 6:2.0 7:26.0 8:0.846153846 9:4.0 10:2.0 11:1.0 12:11.0 13:2.0 14:1.0 15:0.0 16:0.0 17:3.0 18:9.0 19:2.0 20:0.0 21:0.0 22:3.0 23:10.0 24:26.0 
0.5517715093559803 0.8814924530184075 0.4261050133876439 0.5269218019570167 0.925038878225454 1:19.0 2:1.0 3:0.0 4:0.0 5:0.0 6:2.0 7:27.0 8:0.814814815 9:5.0 10:3.0 11:0.0 12:5.0 13:5.0 14:3.0 15:2.0 16:0.0 17:2.0 18:4.0 19:10.0 20:1.0 21:2.0 22:2.0 23:13.0 24:27.0 
0.17064482589674776 0.2685722093374459 0.2472962803955997 0.38307643760764165 0.639476174187662 1:13.0 2:3.0 3:0.0 4:0.0 5:0.0 6:3.0 7:25.0 8:0.92 9:4.0 10:3.0 11:1.0 12:6.0 13:2.0 14:4.0 15:2.0 16:1.0 17:2.0 18:7.0 19:5.0 20:1.0 21:2.0 22:2.0 23:9.0 24:25.0 
0.30128760012520617 0.012420301705582608 0.1722502675291539 0.6904290154715128 1.0 1:17.0 2:1.0 3:0.0 4:2.0 5:0.0 6:2.0 7:27.0 8:0.703703704 9:3.0 10:3.0 11:0.0 12:5.0 13:3.0 14:2.0 15:1.0 16:0.0 17:2.0 18:9.0 19:2.0 20:1.0 21:0.0 22:2.0 23:11.0 24:27.0 
0.8435525120875554 1.0 0.6261907489399978 0.6837486349545908 0.8906565615917742 1:22.0 2:0.0 3:0.0 4:0.0 5:0.0 6:0.0 7:25.0 8:0.68 9:2.0 10:9.0 11:0.0 12:1.0 13:6.0 14:0.0 15:0.0 16:8.0 17:3.0 18:9.0 19:7.0 20:0.0 21:0.0 22:2.0 23:11.0 24:25.0 
0.14477925530682 0.37463163463571814 0.1968784199036975 0.9834170392952094 1.0 1:22.0 2:0.0 3:0.0 4:0.0 5:0.0 6:2.0 7:25.0 8:0.96 9:4.0 10:2.0 11:0.0 12:7.0 13:3.0 14:4.0 15:1.0 16:1.0 17:3.0 18:7.0 19:6.0 20:1.0 21:1.0 22:2.0 23:14.0 24:25.0 
0.06420994988790264 0.11939545014256786 0.04060185262930978 0.9760267804455813 1.0 1:19.0 2:1.0 3:0.0 4:0.0 5:0.0 6:2.0 7:24.0 8:0.958333333 9:4.0 10:3.0 11:5.0 12:7.0 13:3.0 14:3.0 15:0.0 16:1.0 17:5.0 18:10.0 19:3.0 20:2.0 21:1.0 22:5.0 23:11.0 24:24.0 
0.4976623749230383 0.7841389312554106 0.48849964506365307 1.0 1.0 1:15.0 2:1.0 3:0.0 4:0.0 5:0.0 6:3.0 7:24.0 8:1.0 9:5.0 10:3.0 11:1.0 12:4.0 13:2.0 14:7.0 15:2.0 16:1.0 17:1.0 18:7.0 19:2.0 20:0.0 21:1.0 22:1.0 23:11.0 24:24.0 
0.18627462544651172 0.2767482706385259 0.16129352954867882 0.47066127853890904 0.9330815717181428 1:17.0 2:0.0 3:1.0 4:0.0 5:0.0 6:2.0 7:26.0 8:0.961538462 9:4.0 10:1.0 11:2.0 12:6.0 13:4.0 14:2.0 15:4.0 16:0.0 17:4.0 18:8.0 19:4.0 20:3.0 21:1.0 22:4.0 23:10.0 24:26.0 
0.3612604879781722 0.3254416719722182 0.14255170129933373 0.6833349955522436 1.0 1:19.0 2:0.0 3:0.0 4:0.0 5:0.0 6:2.0 7:27.0 8:0.925925926 9:4.0 10:6.0 11:1.0 12:5.0 13:7.0 14:1.0 15:1.0 16:0.0 17:3.0 18:5.0 19:9.0 20:0.0 21:1.0 22:1.0 23:13.0 24:27.0 
0.24771733773713003 0.5196091134971048 0.4078414240376852 1.0 1.0 1:20.0 2:0.0 3:0.0 4:0.0 5:0.0 6:2.0 7:23.0 8:0.913043478 9:4.0 10:6.0 11:0.0 12:3.0 13:5.0 14:4.0 15:3.0 16:2.0 17:2.0 18:8.0 19:6.0 20:1.0 21:0.0 22:2.0 23:12.0 24:23.0 
0.6398250126316389 0.9357156237600375 0.4085997933852393 0.37145951302276226 0.4302695804077221 1:13.0 2:3.0 3:0.0 4:0.0 5:0.0 6:4.0 7:25.0 8:0.84 9:5.0 10:4.0 11:0.0 12:8.0 13:3.0 14:3.0 15:2.0 16:0.0 17:3.0 18:7.0 19:4.0 20:0.0 21:2.0 22:3.0 23:7.0 24:25.0 
0.4646564889805512 0.0 0.0 0.0 0.7775993992712961 1:24.0 2:1.0 3:0.0 4:0.0 5:0.0 6:1.0 7:31.0 8:0.903225806 9:4.0 10:5.0 11:3.0 12:7.0 13:4.0 14:5.0 15:2.0 16:0.0 17:0.0 18:7.0 19:6.0 20:2.0 21:0.0 22:2.0 23:13.0 24:31.0 
0.0 0.2608232492617719 0.1305198300735211 0.1136209357392128 0.055912776983808705 1:26.0 2:1.0 3:0.0 4:0.0 5:0.0 6:0.0 7:32.0 8:0.8125 9:4.0 10:9.0 11:0.0 12:4.0 13:6.0 14:2.0 15:2.0 16:3.0 17:2.0 18:7.0 19:6.0 20:1.0 21:2.0 22:2.0 23:11.0 24:32.0 
0.6891810894601578 1.0 0.5421437045011512 0.5762932336448376 1.0 1:21.0 2:0.0 3:0.0 4:0.0 5:0.0 6:1.0 7:29.0 8:0.862068966 9:4.0 10:6.0 11:1.0 12:2.0 13:5.0 14:2.0 15:7.0 16:2.0 17:4.0 18:5.0 19:7.0 20:1.0 21:2.0 22:1.0 23:11.0 24:29.0 
0.0 0.0 0.0 0.0 0.03242249425684375 1:20.0 2:0.0 3:0.0 4:1.0 5:0.0 6:0.0 7:31.0 8:0.903225806 9:4.0 10:3.0 11:7.0 12:7.0 13:4.0 14:1.0 15:1.0 16:2.0 17:4.0 18:13.0 19:4.0 20:0.0 21:0.0 22:4.0 23:10.0 24:31.0 
0.5157143087557138 0.31798460051165167 0.12303993441003079 0.7504010606565592 1.0 1:14.0 2:0.0 3:0.0 4:0.0 5:2.0 6:1.0 7:27.0 8:0.962962963 9:5.0 10:5.0 11:5.0 12:9.0 13:3.0 14:1.0 15:2.0 16:1.0 17:3.0 18:9.0 19:5.0 20:0.0 21:2.0 22:2.0 23:14.0 24:27.0 
0.08464276316857608 0.23406032285367556 0.010507900707024412 0.0634907361398529 1.0 1:18.0 2:0.0 3:0.0 4:0.0 5:1.0 6:1.0 7:25.0 8:0.88 9:5.0 10:3.0 11:5.0 12:7.0 13:4.0 14:5.0 15:0.0 16:0.0 17:4.0 18:8.0 19:5.0 20:0.0 21:0.0 22:5.0 23:17.0 24:25.0 
0.0 0.0 0.0 0.0 0.17144898641945305 1:27.0 2:0.0 3:0.0 4:0.0 5:0.0 6:1.0 7:31.0 8:0.903225806 9:4.0 10:3.0 11:0.0 12:9.0 13:4.0 14:3.0 15:2.0 16:0.0 17:3.0 18:10.0 19:4.0 20:0.0 21:2.0 22:5.0 23:9.0 24:31.0 
0.0 0.0 0.0 0.0 0.14138379349973335 1:25.0 2:0.0 3:0.0 4:0.0 5:0.0 6:1.0 7:30.0 8:0.9 9:4.0 10:3.0 11:3.0 12:6.0 13:3.0 14:0.0 15:2.0 16:2.0 17:6.0 18:8.0 19:4.0 20:0.0 21:2.0 22:4.0 23:10.0 24:30.0 
0.2622361726327647 0.4685438270574341 0.22201292103800022 0.4270644261686464 0.9733582669693316 1:19.0 2:0.0 3:0.0 4:0.0 5:0.0 6:1.0 7:29.0 8:0.896551724 9:4.0 10:3.0 11:4.0 12:5.0 13:2.0 14:5.0 15:0.0 16:1.0 17:6.0 18:12.0 19:3.0 20:0.0 21:0.0 22:6.0 23:14.0 24:29.0 
0.21176909575105599 0.6037641220409793 0.24491769255913373 0.015051587048680584 0.3951403021796876 1:25.0 2:0.0 3:0.0 4:0.0 5:1.0 6:0.0 7:29.0 8:0.931034483 9:4.0 10:2.0 11:0.0 12:11.0 13:5.0 14:1.0 15:2.0 16:0.0 17:3.0 18:12.0 19:6.0 20:0.0 21:2.0 22:4.0 23:16.0 24:29.0 
0.5273089957553643 0.18116596995169756 0.05039862087453577 0.652551072700204 0.7195305320193328 1:16.0 2:0.0 3:0.0 4:0.0 5:1.0 6:2.0 7:26.0 8:0.884615385 9:4.0 10:1.0 11:4.0 12:9.0 13:3.0 14:1.0 15:0.0 16:0.0 17:4.0 18:15.0 19:2.0 20:0.0 21:0.0 22:4.0 23:14.0 24:26.0 
0.0 0.0 0.0 0.0 0.5313918457981528 1:24.0 2:1.0 3:1.0 4:1.0 5:0.0 6:0.0 7:32.0 8:0.90625 9:4.0 10:7.0 11:1.0 12:8.0 13:5.0 14:4.0 15:0.0 16:1.0 17:3.0 18:8.0 19:8.0 20:0.0 21:0.0 22:0.0 23:11.0 24:32.0 
0.8900803168036331 1.0 0.6462905650101829 0.6465328698580656 0.75527769284423 1:28.0 2:0.0 3:0.0 4:0.0 5:0.0 6:0.0 7:37.0 8:0.810810811 9:3.0 10:7.0 11:1.0 12:7.0 13:6.0 14:2.0 15:2.0 16:4.0 17:4.0 18:11.0 19:6.0 20:2.0 21:2.0 22:3.0 23:11.0 24:19.0 
0.667801006194529 0.6998622594260813 0.2165254117924045 0.20514079558560824 0.5447952914163064 1:26.0 2:1.0 3:0.0 4:0.0 5:0.0 6:0.0 7:33.0 8:0.939393939 9:5.0 10:2.0 11:2.0 12:6.0 13:2.0 14:8.0 15:2.0 16:0.0 17:3.0 18:11.0 19:3.0 20:2.0 21:2.0 22:3.0 23:14.0 24:33.0 
0.0 0.0 0.0 0.0 1.0 1:23.0 2:0.0 3:0.0 4:0.0 5:2.0 6:0.0 7:29.0 8:0.896551724 9:4.0 10:5.0 11:1.0 12:8.0 13:4.0 14:3.0 15:0.0 16:1.0 17:4.0 18:9.0 19:6.0 20:0.0 21:0.0 22:5.0 23:16.0 24:29.0 
0.8481238107924782 0.6855227528195985 0.3032581921743615 0.7663909795456683 1.0 1:18.0 2:0.0 3:0.0 4:1.0 5:0.0 6:1.0 7:25.0 8:0.96 9:4.0 10:6.0 11:2.0 12:6.0 13:5.0 14:5.0 15:0.0 16:1.0 17:2.0 18:8.0 19:6.0 20:1.0 21:0.0 22:2.0 23:20.0 24:25.0 
0.31739691794222624 0.0 0.0 0.0 0.20517871820970127 1:25.0 2:0.0 3:0.0 4:0.0 5:0.0 6:0.0 7:32.0 8:0.90625 9:5.0 10:1.0 11:1.0 12:8.0 13:3.0 14:3.0 15:3.0 16:1.0 17:4.0 18:14.0 19:5.0 20:0.0 21:2.0 22:5.0 23:13.0 24:32.0 
0.9481996595146682 1.0 0.6397174598056916 0.6364514609459256 0.741210842683134 1:26.0 2:0.0 3:0.0 4:0.0 5:0.0 6:1.0 7:36.0 8:0.888888889 9:4.0 10:7.0 11:6.0 12:8.0 13:6.0 14:4.0 15:2.0 16:1.0 17:4.0 18:11.0 19:7.0 20:2.0 21:0.0 22:2.0 23:15.0 24:24.0 
0.0 0.0 0.0 0.0 1.0 1:26.0 2:0.0 3:0.0 4:0.0 5:0.0 6:1.0 7:29.0 8:0.793103448 9:5.0 10:3.0 11:0.0 12:9.0 13:4.0 14:2.0 15:0.0 16:0.0 17:4.0 18:10.0 19:8.0 20:0.0 21:0.0 22:4.0 23:15.0 24:29.0 
0.0 0.0 0.0 0.0 0.27888135776083134 1:26.0 2:0.0 3:0.0 4:0.0 5:0.0 6:0.0 7:29.0 8:0.827586207 9:4.0 10:8.0 11:3.0 12:5.0 13:7.0 14:3.0 15:2.0 16:1.0 17:1.0 18:9.0 19:8.0 20:2.0 21:1.0 22:2.0 23:16.0 24:29.0 
1.0 1.0 0.7345150316412234 0.7331589639292001 0.7934827329541762 1:31.0 2:0.0 3:0.0 4:0.0 5:0.0 6:0.0 7:42.0 8:0.785714286 9:4.0 10:4.0 11:1.0 12:13.0 13:3.0 14:6.0 15:0.0 16:2.0 17:4.0 18:11.0 19:4.0 20:1.0 21:0.0 22:3.0 23:15.0 24:10.0 
1.0 1.0 0.44443898475814336 0.3885880995338311 0.577573808655915 1:21.0 2:0.0 3:0.0 4:0.0 5:1.0 6:0.0 7:32.0 8:0.875 9:5.0 10:6.0 11:0.0 12:8.0 13:3.0 14:2.0 15:5.0 16:0.0 17:5.0 18:8.0 19:4.0 20:2.0 21:3.0 22:1.0 23:14.0 24:32.0 
0.8235164196799402 0.3387128403571721 0.0 0.0 0.0010380450026647584 1:22.0 2:0.0 3:0.0 4:2.0 5:0.0 6:1.0 7:32.0 8:0.75 9:4.0 10:3.0 11:3.0 12:10.0 13:3.0 14:2.0 15:0.0 16:0.0 17:6.0 18:12.0 19:3.0 20:0.0 21:0.0 22:6.0 23:15.0 24:32.0 
0.7438932405485732 0.6837457243916927 0.33650717327055707 0.41435302126744633 0.7351024027578208 1:25.0 2:0.0 3:0.0 4:2.0 5:0.0 6:0.0 7:30.0 8:0.766666667 9:4.0 10:3.0 11:0.0 12:5.0 13:2.0 14:2.0 15:4.0 16:3.0 17:3.0 18:10.0 19:3.0 20:0.0 21:1.0 22:3.0 23:9.0 24:30.0 
0.0 0.0 0.0 0.5724794094465693 1.0 1:21.0 2:0.0 3:0.0 4:1.0 5:0.0 6:1.0 7:28.0 8:0.964285714 9:5.0 10:2.0 11:2.0 12:10.0 13:2.0 14:4.0 15:2.0 16:0.0 17:4.0 18:11.0 19:3.0 20:2.0 21:0.0 22:5.0 23:10.0 24:28.0 
0.21746632178993355 0.0 0.0 0.0 0.0 1:26.0 2:0.0 3:0.0 4:0.0 5:0.0 6:1.0 7:32.0 8:0.75 9:4.0 10:8.0 11:1.0 12:7.0 13:5.0 14:3.0 15:1.0 16:3.0 17:2.0 18:7.0 19:6.0 20:1.0 21:1.0 22:0.0 23:14.0 24:32.0 
0.9811510459462606 1.0 0.7274869559560166 0.7596226364980899 0.8686636845572671 1:22.0 2:0.0 3:0.0 4:0.0 5:0.0 6:1.0 7:36.0 8:0.888888889 9:4.0 10:5.0 11:4.0 12:8.0 13:4.0 14:5.0 15:4.0 16:1.0 17:2.0 18:11.0 19:4.0 20:2.0 21:2.0 22:2.0 23:12.0 24:11.0 
0.5522533691639907 0.8968734830634122 0.4393413660831603 0.39117335042349405 0.7736340540526517 1:17.0 2:0.0 3:0.0 4:0.0 5:0.0 6:1.0 7:27.0 8:0.925925926 9:5.0 10:5.0 11:5.0 12:9.0 13:6.0 14:1.0 15:0.0 16:0.0 17:4.0 18:8.0 19:7.0 20:1.0 21:0.0 22:3.0 23:20.0 24:27.0 
0.7752945408700869 0.7204827640683845 0.3312764722758071 0.33154602627566404 0.2949517136908367 1:27.0 2:0.0 3:0.0 4:0.0 5:0.0 6:0.0 7:33.0 8:0.818181818 9:3.0 10:7.0 11:3.0 12:4.0 13:2.0 14:2.0 15:4.0 16:3.0 17:4.0 18:6.0 19:6.0 20:2.0 21:2.0 22:2.0 23:14.0 24:33.0 
0.6005565803546381 0.2747621189970993 0.12070122506969999 0.044397682922246565 0.49440568268950746 1:20.0 2:1.0 3:0.0 4:0.0 5:0.0 6:2.0 7:30.0 8:0.733333333 9:3.0 10:4.0 11:3.0 12:6.0 13:4.0 14:1.0 15:1.0 16:3.0 17:2.0 18:8.0 19:3.0 20:1.0 21:2.0 22:2.0 23:9.0 24:30.0 
0.8229073855938408 0.6633023044156213 0.32054506080497974 0.3049348639589049 0.5922857048653817 1:27.0 2:0.0 3:0.0 4:0.0 5:0.0 6:0.0 7:31.0 8:0.967741935 9:4.0 10:5.0 11:1.0 12:3.0 13:7.0 14:5.0 15:4.0 16:1.0 17:2.0 18:5.0 19:9.0 20:1.0 21:2.0 22:1.0 23:16.0 24:31.0 
0.5139728115492904 0.21726012298464367 0.11226201846058813 0.11513750201328395 1.0 1:24.0 2:0.0 3:0.0 4:0.0 5:0.0 6:0.0 7:28.0 8:0.892857143 9:4.0 10:4.0 11:1.0 12:5.0 13:3.0 14:2.0 15:2.0 16:3.0 17:5.0 18:9.0 19:4.0 20:2.0 21:1.0 22:6.0 23:16.0 24:28.0 
0.3865225672645229 0.2080413848118745 0.0 0.0 0.0 1:28.0 2:0.0 3:0.0 4:0.0 5:0.0 6:1.0 7:32.0 8:0.9375 9:4.0 10:5.0 11:3.0 12:6.0 13:4.0 14:5.0 15:2.0 16:2.0 17:6.0 18:9.0 19:4.0 20:0.0 21:1.0 22:4.0 23:11.0 24:32.0 
1.0 0.7187695816414417 0.32170958714080616 0.3133225601975031 0.879447554162433 1:18.0 2:0.0 3:0.0 4:0.0 5:0.0 6:1.0 7:31.0 8:0.870967742 9:4.0 10:3.0 11:10.0 12:14.0 13:1.0 14:1.0 15:1.0 16:0.0 17:4.0 18:11.0 19:2.0 20:0.0 21:0.0 22:5.0 23:13.0 24:31.0 
0.3977743630066182 0.8443952020361091 0.25370018180148723 0.39326552419231314 0.49426610373936286 1:23.0 2:0.0 3:0.0 4:0.0 5:0.0 6:1.0 7:29.0 8:0.793103448 9:3.0 10:7.0 11:1.0 12:8.0 13:4.0 14:0.0 15:2.0 16:1.0 17:2.0 18:12.0 19:4.0 20:0.0 21:1.0 22:0.0 23:17.0 24:29.0 
0.4185874342755319 0.7633427890244525 0.4016724630521097 0.4071169023823889 0.4945927938778533 1:20.0 2:0.0 3:0.0 4:0.0 5:0.0 6:1.0 7:33.0 8:0.848484848 9:3.0 10:5.0 11:7.0 12:9.0 13:5.0 14:0.0 15:1.0 16:2.0 17:3.0 18:8.0 19:4.0 20:0.0 21:1.0 22:1.0 23:9.0 24:33.0 
0.48380182397910954 0.41690608838228155 0.19183333073928455 0.12609077201281874 0.4364426153041194 1:22.0 2:1.0 3:0.0 4:0.0 5:0.0 6:0.0 7:32.0 8:0.875 9:4.0 10:8.0 11:1.0 12:5.0 13:5.0 14:2.0 15:3.0 16:3.0 17:2.0 18:10.0 19:6.0 20:1.0 21:0.0 22:2.0 23:10.0 24:32.0 
0.14299387966179597 0.0 0.0 0.0 0.8906549789024581 1:26.0 2:0.0 3:0.0 4:0.0 5:0.0 6:1.0 7:32.0 8:0.875 9:4.0 10:5.0 11:1.0 12:8.0 13:5.0 14:3.0 15:0.0 16:0.0 17:1.0 18:8.0 19:7.0 20:0.0 21:0.0 22:2.0 23:16.0 24:32.0 
0.40342746569957255 0.23604570380964277 0.13603260514640475 0.11023948003349912 0.20993761710657619 1:28.0 2:0.0 3:0.0 4:0.0 5:0.0 6:0.0 7:31.0 8:0.870967742 9:3.0 10:5.0 11:0.0 12:10.0 13:3.0 14:4.0 15:0.0 16:1.0 17:5.0 18:15.0 19:5.0 20:0.0 21:0.0 22:5.0 23:11.0 24:31.0 
0.3126715015830053 0.30136851623529526 0.15146099375521524 0.19920226829068835 1.0 1:25.0 2:0.0 3:0.0 4:0.0 5:0.0 6:1.0 7:27.0 8:0.925925926 9:4.0 10:4.0 11:0.0 12:7.0 13:3.0 14:2.0 15:4.0 16:2.0 17:5.0 18:10.0 19:4.0 20:1.0 21:2.0 22:4.0 23:17.0 24:27.0 
0.17122269513335084 0.18242416466719005 0.10106562668964146 0.31645652475410235 1.0 1:23.0 2:0.0 3:0.0 4:0.0 5:0.0 6:1.0 7:30.0 8:0.933333333 9:4.0 10:5.0 11:4.0 12:10.0 13:5.0 14:2.0 15:2.0 16:1.0 17:2.0 18:6.0 19:5.0 20:0.0 21:2.0 22:1.0 23:10.0 24:30.0 
0.17870733294325816 0.0 0.0 0.0 0.0 1:24.0 2:0.0 3:0.0 4:0.0 5:0.0 6:1.0 7:30.0 8:0.866666667 9:5.0 10:2.0 11:1.0 12:9.0 13:5.0 14:5.0 15:0.0 16:0.0 17:2.0 18:11.0 19:7.0 20:0.0 21:0.0 22:2.0 23:13.0 24:30.0 
0.0 0.0 0.0 0.0 0.024242137926196037 1:21.0 2:0.0 3:0.0 4:0.0 5:0.0 6:1.0 7:28.0 8:0.928571429 9:4.0 10:6.0 11:5.0 12:8.0 13:6.0 14:1.0 15:1.0 16:2.0 17:4.0 18:8.0 19:9.0 20:1.0 21:2.0 22:3.0 23:13.0 24:28.0 
0.0 0.0 0.0 0.0 0.2247813122555415 1:28.0 2:0.0 3:0.0 4:0.0 5:0.0 6:0.0 7:31.0 8:0.870967742 9:3.0 10:4.0 11:2.0 12:7.0 13:6.0 14:2.0 15:0.0 16:2.0 17:5.0 18:10.0 19:6.0 20:1.0 21:0.0 22:4.0 23:12.0 24:31.0 
0.0 0.0 0.0 0.0 0.3123174299277858 1:23.0 2:0.0 3:0.0 4:0.0 5:0.0 6:2.0 7:29.0 8:0.793103448 9:4.0 10:4.0 11:2.0 12:8.0 13:4.0 14:3.0 15:1.0 16:0.0 17:3.0 18:10.0 19:5.0 20:0.0 21:1.0 22:3.0 23:9.0 24:29.0 
0.1312910663442859 0.0 0.0 0.0 0.0 1:23.0 2:1.0 3:0.0 4:0.0 5:0.0 6:1.0 7:29.0 8:0.827586207 9:3.0 10:8.0 11:4.0 12:6.0 13:5.0 14:1.0 15:0.0 16:4.0 17:3.0 18:10.0 19:6.0 20:0.0 21:0.0 22:3.0 23:14.0 24:29.0 
1.0 0.9792281042901269 0.4850182189198389 0.4804700031503638 0.625383204878887 1:24.0 2:2.0 3:0.0 4:0.0 5:0.0 6:0.0 7:34.0 8:0.882352941 9:4.0 10:3.0 11:1.0 12:7.0 13:4.0 14:4.0 15:6.0 16:1.0 17:2.0 18:10.0 19:3.0 20:0.0 21:4.0 22:3.0 23:9.0 24:34.0 
0.2068072346730436 0.3688900600985888 0.1545279810240507 0.5878902935488189 1.0 1:16.0 2:1.0 3:0.0 4:2.0 5:0.0 6:1.0 7:25.0 8:0.8 9:4.0 10:4.0 11:4.0 12:7.0 13:5.0 14:2.0 15:0.0 16:0.0 17:2.0 18:8.0 19:8.0 20:1.0 21:0.0 22:3.0 23:16.0 24:25.0 
0.0 0.0 0.0 0.0 0.07124822701811095 1:25.0 2:0.0 3:0.0 4:1.0 5:0.0 6:1.0 7:29.0 8:0.896551724 9:3.0 10:4.0 11:2.0 12:7.0 13:4.0 14:1.0 15:2.0 16:1.0 17:3.0 18:9.0 19:7.0 20:1.0 21:0.0 22:3.0 23:13.0 24:29.0 
0.4604287846556877 0.0 0.0 0.2300739378693161 0.4965733148487262 1:20.0 2:0.0 3:0.0 4:0.0 5:0.0 6:3.0 7:28.0 8:0.821428571 9:4.0 10:1.0 11:3.0 12:9.0 13:4.0 14:0.0 15:0.0 16:0.0 17:5.0 18:10.0 19:3.0 20:0.0 21:0.0 22:6.0 23:12.0 24:28.0 
0.13404313566441062 0.0 0.0 0.0 1.0 1:17.0 2:1.0 3:0.0 4:0.0 5:0.0 6:3.0 7:26.0 8:0.961538462 9:4.0 10:3.0 11:1.0 12:8.0 13:2.0 14:1.0 15:0.0 16:1.0 17:4.0 18:11.0 19:4.0 20:1.0 21:0.0 22:4.0 23:14.0 24:26.0 
0.0 0.0 0.0 0.0 0.5396143299420991 1:27.0 2:1.0 3:0.0 4:0.0 5:0.0 6:1.0 7:30.0 8:0.9 9:4.0 10:2.0 11:1.0 12:9.0 13:3.0 14:6.0 15:1.0 16:0.0 17:5.0 18:11.0 19:3.0 20:0.0 21:1.0 22:5.0 23:13.0 24:30.0 
0.053297210424894846 0.0 7.558786787352996E-4 0.0 0.8483880172643823 1:24.0 2:1.0 3:0.0 4:1.0 5:0.0 6:0.0 7:30.0 8:0.8 9:4.0 10:5.0 11:2.0 12:5.0 13:8.0 14:2.0 15:0.0 16:2.0 17:3.0 18:11.0 19:6.0 20:0.0 21:0.0 22:3.0 23:12.0 24:30.0 
0.07183761672264907 0.31123567497268595 0.17203602908022228 0.19557548090634355 1.0 1:25.0 2:0.0 3:0.0 4:0.0 5:1.0 6:0.0 7:29.0 8:0.827586207 9:3.0 10:6.0 11:0.0 12:8.0 13:4.0 14:0.0 15:0.0 16:2.0 17:5.0 18:11.0 19:6.0 20:0.0 21:0.0 22:4.0 23:10.0 24:29.0 
0.2845116853968146 0.0 0.0 0.0 0.5218662581153393 1:19.0 2:0.0 3:0.0 4:1.0 5:0.0 6:2.0 7:27.0 8:0.925925926 9:3.0 10:5.0 11:1.0 12:6.0 13:4.0 14:2.0 15:1.0 16:3.0 17:3.0 18:11.0 19:5.0 20:0.0 21:1.0 22:3.0 23:10.0 24:27.0 
0.26236158289253947 0.24621529709431278 0.11964836912654014 0.0 1.0 1:22.0 2:0.0 3:0.0 4:0.0 5:0.0 6:1.0 7:28.0 8:0.821428571 9:4.0 10:7.0 11:4.0 12:7.0 13:4.0 14:2.0 15:2.0 16:2.0 17:2.0 18:11.0 19:4.0 20:0.0 21:3.0 22:1.0 23:11.0 24:28.0 
0.502818595106437 0.5845876376853839 0.22489973360243382 0.2538402808939718 0.8132547676646456 1:20.0 2:1.0 3:0.0 4:0.0 5:2.0 6:0.0 7:32.0 8:0.875 9:4.0 10:3.0 11:2.0 12:6.0 13:3.0 14:5.0 15:2.0 16:1.0 17:4.0 18:13.0 19:4.0 20:0.0 21:1.0 22:3.0 23:9.0 24:32.0 
0.5464627490335715 0.7050316792095136 0.3627990301240136 0.343127334014114 0.523358822334456 1:20.0 2:0.0 3:0.0 4:0.0 5:0.0 6:3.0 7:29.0 8:0.724137931 9:3.0 10:2.0 11:6.0 12:9.0 13:1.0 14:1.0 15:0.0 16:0.0 17:7.0 18:8.0 19:5.0 20:0.0 21:1.0 22:7.0 23:10.0 24:29.0 
0.7084683110757118 1.0 0.5222953840214596 0.5340492729571387 0.6488803520484094 1:27.0 2:0.0 3:0.0 4:0.0 5:0.0 6:0.0 7:28.0 8:0.857142857 9:3.0 10:9.0 11:0.0 12:3.0 13:8.0 14:1.0 15:1.0 16:4.0 17:2.0 18:6.0 19:11.0 20:1.0 21:1.0 22:0.0 23:21.0 24:28.0 
0.0 0.2767498257682442 0.11010375829610859 0.0 1.0 1:24.0 2:0.0 3:0.0 4:1.0 5:0.0 6:1.0 7:28.0 8:0.964285714 9:3.0 10:4.0 11:4.0 12:6.0 13:5.0 14:1.0 15:1.0 16:1.0 17:6.0 18:10.0 19:7.0 20:0.0 21:1.0 22:6.0 23:13.0 24:28.0 
0.0 0.0 0.0 0.0 0.04560057196855897 1:21.0 2:0.0 3:0.0 4:0.0 5:0.0 6:1.0 7:29.0 8:0.965517241 9:5.0 10:6.0 11:1.0 12:5.0 13:5.0 14:5.0 15:4.0 16:1.0 17:3.0 18:6.0 19:5.0 20:1.0 21:2.0 22:1.0 23:14.0 24:29.0 
0.0 0.0 0.0 0.0 1.0 1:20.0 2:0.0 3:0.0 4:1.0 5:0.0 6:1.0 7:27.0 8:0.962962963 9:4.0 10:3.0 11:6.0 12:10.0 13:3.0 14:2.0 15:0.0 16:0.0 17:5.0 18:13.0 19:3.0 20:0.0 21:0.0 22:4.0 23:13.0 24:27.0 
0.0 0.0 0.0 0.0 0.3565533466571983 1:23.0 2:0.0 3:1.0 4:0.0 5:0.0 6:1.0 7:28.0 8:0.892857143 9:5.0 10:3.0 11:2.0 12:9.0 13:5.0 14:3.0 15:1.0 16:0.0 17:3.0 18:9.0 19:6.0 20:0.0 21:0.0 22:3.0 23:14.0 24:28.0 
0.0 0.0 0.0 0.0 0.19017290009415636 1:20.0 2:0.0 3:0.0 4:0.0 5:0.0 6:2.0 7:28.0 8:0.964285714 9:3.0 10:4.0 11:10.0 12:8.0 13:4.0 14:1.0 15:1.0 16:1.0 17:2.0 18:9.0 19:5.0 20:1.0 21:0.0 22:2.0 23:16.0 24:28.0 
0.6157092497471874 0.0 0.0 0.0 0.0 1:24.0 2:0.0 3:0.0 4:0.0 5:0.0 6:0.0 7:31.0 8:0.870967742 9:3.0 10:8.0 11:0.0 12:5.0 13:5.0 14:3.0 15:0.0 16:3.0 17:3.0 18:10.0 19:7.0 20:0.0 21:0.0 22:2.0 23:16.0 24:31.0 
0.0 0.0 0.0 0.0 1.0 1:17.0 2:1.0 3:0.0 4:0.0 5:0.0 6:2.0 7:25.0 8:0.96 9:4.0 10:1.0 11:3.0 12:8.0 13:2.0 14:3.0 15:3.0 16:0.0 17:4.0 18:11.0 19:2.0 20:2.0 21:0.0 22:5.0 23:13.0 24:25.0 
0.0 0.0 0.0 0.0 1.0 1:24.0 2:0.0 3:0.0 4:0.0 5:0.0 6:2.0 7:28.0 8:0.892857143 9:4.0 10:6.0 11:0.0 12:4.0 13:6.0 14:2.0 15:2.0 16:1.0 17:3.0 18:6.0 19:5.0 20:1.0 21:1.0 22:3.0 23:13.0 24:28.0 
0.3634041941357023 0.3414514735222327 0.18539996117544894 0.18018274623785882 0.19256278801639326 1:27.0 2:0.0 3:0.0 4:0.0 5:0.0 6:0.0 7:29.0 8:0.931034483 9:4.0 10:6.0 11:0.0 12:7.0 13:7.0 14:0.0 15:3.0 16:1.0 17:3.0 18:11.0 19:6.0 20:0.0 21:0.0 22:1.0 23:19.0 24:29.0 
0.0 0.0 0.0 0.0 0.6921901551978908 1:22.0 2:0.0 3:0.0 4:0.0 5:0.0 6:1.0 7:28.0 8:1.0 9:4.0 10:6.0 11:0.0 12:6.0 13:5.0 14:1.0 15:2.0 16:1.0 17:5.0 18:8.0 19:6.0 20:1.0 21:0.0 22:3.0 23:15.0 24:28.0 
0.7656325494977722 1.0 0.56196665315262 0.568777620134679 0.6222899828964983 1:26.0 2:0.0 3:0.0 4:0.0 5:0.0 6:0.0 7:34.0 8:0.911764706 9:4.0 10:5.0 11:10.0 12:11.0 13:4.0 14:2.0 15:0.0 16:2.0 17:4.0 18:14.0 19:5.0 20:0.0 21:0.0 22:4.0 23:12.0 24:21.0 
0.3009681717257023 0.45003191799615266 0.23821753655429614 0.19560600934668618 0.5556461126924723 1:24.0 2:0.0 3:0.0 4:0.0 5:0.0 6:0.0 7:27.0 8:0.851851852 9:3.0 10:6.0 11:3.0 12:5.0 13:6.0 14:1.0 15:1.0 16:5.0 17:3.0 18:10.0 19:9.0 20:0.0 21:1.0 22:0.0 23:15.0 24:27.0 
0.44241949979492523 0.5414301672471726 0.25677739049165915 0.23133314563776042 0.3177158115435996 1:23.0 2:0.0 3:0.0 4:0.0 5:0.0 6:0.0 7:33.0 8:0.909090909 9:4.0 10:4.0 11:5.0 12:6.0 13:8.0 14:3.0 15:2.0 16:1.0 17:2.0 18:8.0 19:9.0 20:0.0 21:2.0 22:2.0 23:11.0 24:33.0 
0.49753866127929797 0.508617246239691 0.0 0.0 0.9525628328408684 1:21.0 2:0.0 3:0.0 4:0.0 5:0.0 6:2.0 7:31.0 8:0.870967742 9:4.0 10:1.0 11:4.0 12:8.0 13:2.0 14:6.0 15:1.0 16:1.0 17:5.0 18:11.0 19:2.0 20:0.0 21:1.0 22:4.0 23:10.0 24:31.0 
0.7037773270640415 0.18813742465938485 0.0838175586069714 0.07545731841310128 0.9441436290382884 1:24.0 2:0.0 3:0.0 4:0.0 5:0.0 6:1.0 7:28.0 8:0.892857143 9:5.0 10:8.0 11:0.0 12:6.0 13:6.0 14:5.0 15:0.0 16:2.0 17:2.0 18:10.0 19:8.0 20:1.0 21:0.0 22:2.0 23:14.0 24:28.0 
0.22172554462337582 0.0 0.0 0.0 0.8588548770281548 1:24.0 2:0.0 3:0.0 4:0.0 5:0.0 6:1.0 7:31.0 8:0.774193548 9:5.0 10:4.0 11:2.0 12:11.0 13:3.0 14:3.0 15:3.0 16:0.0 17:5.0 18:9.0 19:4.0 20:0.0 21:2.0 22:4.0 23:12.0 24:31.0 
0.18718866177866272 0.3856061335886199 0.17322951819780527 0.0 0.664561915527569 1:21.0 2:1.0 3:0.0 4:0.0 5:0.0 6:1.0 7:28.0 8:0.821428571 9:3.0 10:8.0 11:4.0 12:7.0 13:5.0 14:1.0 15:0.0 16:4.0 17:2.0 18:10.0 19:6.0 20:0.0 21:0.0 22:3.0 23:14.0 24:28.0 
0.0 0.0 0.0 0.0 0.5749030030789435 1:21.0 2:0.0 3:0.0 4:1.0 5:0.0 6:1.0 7:28.0 8:0.928571429 9:3.0 10:4.0 11:3.0 12:7.0 13:4.0 14:1.0 15:2.0 16:1.0 17:2.0 18:9.0 19:7.0 20:1.0 21:0.0 22:3.0 23:14.0 24:28.0 
0.2696564668751689 0.46657770859791603 0.22931693252537932 0.18531758358988804 1.0 1:19.0 2:0.0 3:0.0 4:0.0 5:0.0 6:1.0 7:27.0 8:0.925925926 9:4.0 10:6.0 11:5.0 12:8.0 13:6.0 14:1.0 15:1.0 16:1.0 17:4.0 18:7.0 19:9.0 20:1.0 21:2.0 22:3.0 23:13.0 24:27.0 
0.45322428038297324 0.0 0.0 0.0 0.0 1:29.0 2:0.0 3:0.0 4:0.0 5:0.0 6:0.0 7:33.0 8:0.939393939 9:4.0 10:7.0 11:1.0 12:7.0 13:6.0 14:3.0 15:1.0 16:1.0 17:3.0 18:8.0 19:11.0 20:0.0 21:1.0 22:1.0 23:12.0 24:33.0 
0.22283205741174492 0.0 0.0 0.0 1.0 1:22.0 2:1.0 3:0.0 4:0.0 5:0.0 6:1.0 7:28.0 8:0.964285714 9:4.0 10:7.0 11:1.0 12:4.0 13:5.0 14:4.0 15:1.0 16:3.0 17:3.0 18:7.0 19:6.0 20:1.0 21:1.0 22:3.0 23:16.0 24:28.0 
0.35384667514384643 0.5487847241681911 0.22515390281306116 0.33565041031178533 0.6489950562157905 1:16.0 2:0.0 3:0.0 4:0.0 5:0.0 6:3.0 7:27.0 8:0.777777778 9:4.0 10:2.0 11:6.0 12:10.0 13:1.0 14:1.0 15:0.0 16:0.0 17:6.0 18:7.0 19:5.0 20:0.0 21:1.0 22:6.0 23:10.0 24:27.0 
0.9269595290558863 0.9110640566743521 0.4742054911246704 0.4729475064956652 0.5181186597692808 1:27.0 2:0.0 3:0.0 4:0.0 5:1.0 6:0.0 7:36.0 8:0.805555556 9:5.0 10:1.0 11:0.0 12:13.0 13:2.0 14:6.0 15:0.0 16:1.0 17:2.0 18:16.0 19:2.0 20:0.0 21:0.0 22:2.0 23:9.0 24:36.0 
0.6252556816946147 0.5283502907240791 0.23980008317094564 0.19759065117808036 0.3659114829952025 1:26.0 2:0.0 3:0.0 4:0.0 5:0.0 6:1.0 7:32.0 8:0.90625 9:4.0 10:5.0 11:0.0 12:7.0 13:4.0 14:7.0 15:0.0 16:1.0 17:2.0 18:10.0 19:3.0 20:2.0 21:0.0 22:4.0 23:9.0 24:32.0 
0.0 0.0 0.0 0.0 0.3030078330122007 1:21.0 2:0.0 3:0.0 4:0.0 5:3.0 6:0.0 7:26.0 8:0.884615385 9:4.0 10:6.0 11:0.0 12:8.0 13:5.0 14:1.0 15:1.0 16:0.0 17:6.0 18:9.0 19:6.0 20:1.0 21:0.0 22:3.0 23:19.0 24:26.0 
0.0 0.0 0.0 0.0 0.6459696737076561 1:21.0 2:0.0 3:0.0 4:0.0 5:0.0 6:2.0 7:25.0 8:0.96 9:5.0 10:6.0 11:0.0 12:5.0 13:5.0 14:1.0 15:2.0 16:0.0 17:4.0 18:9.0 19:6.0 20:1.0 21:1.0 22:4.0 23:22.0 24:25.0 
0.9860837067015237 1.0 0.6720023176686267 0.6331089675356213 0.8335268628126213 1:20.0 2:0.0 3:0.0 4:0.0 5:0.0 6:0.0 7:27.0 8:0.888888889 9:3.0 10:12.0 11:0.0 12:3.0 13:7.0 14:2.0 15:3.0 16:4.0 17:3.0 18:9.0 19:7.0 20:3.0 21:2.0 22:2.0 23:22.0 24:27.0 
0.4580689688055473 0.0 0.0 0.0 0.0 1:22.0 2:2.0 3:0.0 4:0.0 5:0.0 6:2.0 7:31.0 8:0.806451613 9:3.0 10:5.0 11:1.0 12:7.0 13:4.0 14:2.0 15:0.0 16:1.0 17:5.0 18:9.0 19:5.0 20:0.0 21:0.0 22:3.0 23:13.0 24:31.0 
1.0 0.3318183467862983 0.0 0.0 0.0 1:22.0 2:0.0 3:0.0 4:0.0 5:0.0 6:1.0 7:30.0 8:0.866666667 9:4.0 10:6.0 11:2.0 12:8.0 13:4.0 14:4.0 15:0.0 16:0.0 17:4.0 18:11.0 19:4.0 20:2.0 21:0.0 22:3.0 23:18.0 24:30.0 
0.9391920502546348 0.0 0.0 0.0 0.0 1:25.0 2:0.0 3:0.0 4:0.0 5:0.0 6:0.0 7:33.0 8:0.848484848 9:3.0 10:6.0 11:1.0 12:7.0 13:7.0 14:2.0 15:0.0 16:1.0 17:5.0 18:9.0 19:10.0 20:1.0 21:0.0 22:4.0 23:15.0 24:33.0 
0.0 0.0 0.0 0.0 0.07314270753261072 1:23.0 2:0.0 3:0.0 4:0.0 5:0.0 6:0.0 7:29.0 8:0.862068966 9:4.0 10:7.0 11:0.0 12:5.0 13:5.0 14:1.0 15:4.0 16:4.0 17:1.0 18:9.0 19:6.0 20:0.0 21:3.0 22:2.0 23:15.0 24:29.0 
0.6455359955183411 0.34127456847543597 0.15254947298225324 0.11395772164900721 0.4066884220241023 1:24.0 2:1.0 3:1.0 4:1.0 5:0.0 6:0.0 7:32.0 8:0.9375 9:4.0 10:8.0 11:1.0 12:8.0 13:5.0 14:4.0 15:0.0 16:1.0 17:4.0 18:7.0 19:9.0 20:0.0 21:1.0 22:2.0 23:11.0 24:32.0 
0.9229601193508116 1.0 0.6934382071874969 0.751476803805819 0.9494408570045569 1:16.0 2:2.0 3:0.0 4:0.0 5:0.0 6:3.0 7:30.0 8:0.9 9:5.0 10:1.0 11:3.0 12:9.0 13:1.0 14:5.0 15:3.0 16:1.0 17:6.0 18:13.0 19:2.0 20:1.0 21:2.0 22:6.0 23:11.0 24:11.0 
0.6529161143439657 0.5041263989311675 0.190888992748088 0.07714099482188734 0.10339539795923883 1:15.0 2:0.0 3:0.0 4:1.0 5:0.0 6:2.0 7:32.0 8:0.875 9:4.0 10:3.0 11:4.0 12:10.0 13:3.0 14:2.0 15:1.0 16:0.0 17:2.0 18:11.0 19:5.0 20:0.0 21:1.0 22:3.0 23:13.0 24:32.0 
0.49608863568148887 0.5165469372837715 0.26573204155806823 0.20042998925757716 0.6632998720255254 1:23.0 2:0.0 3:1.0 4:0.0 5:0.0 6:1.0 7:29.0 8:0.827586207 9:4.0 10:2.0 11:7.0 12:10.0 13:4.0 14:2.0 15:0.0 16:0.0 17:2.0 18:13.0 19:3.0 20:2.0 21:0.0 22:3.0 23:16.0 24:29.0 
0.29034395926295253 0.4253738742118123 0.22453490081125846 0.16385570006057668 0.6735170736384047 1:25.0 2:0.0 3:0.0 4:0.0 5:0.0 6:0.0 7:29.0 8:0.896551724 9:4.0 10:7.0 11:3.0 12:4.0 13:8.0 14:5.0 15:0.0 16:2.0 17:2.0 18:8.0 19:10.0 20:1.0 21:0.0 22:3.0 23:17.0 24:29.0 
0.49773127448426874 0.6391473257248173 0.31993467599738407 0.21826582184234822 0.43499212502931833 1:14.0 2:0.0 3:0.0 4:0.0 5:2.0 6:1.0 7:30.0 8:0.966666667 9:5.0 10:5.0 11:6.0 12:9.0 13:3.0 14:1.0 15:2.0 16:1.0 17:3.0 18:11.0 19:5.0 20:0.0 21:2.0 22:2.0 23:16.0 24:30.0 
0.0 0.06442594023506562 0.0 0.0 0.0 1:16.0 2:4.0 3:0.0 4:3.0 5:1.0 6:1.0 7:31.0 8:0.870967742 9:5.0 10:1.0 11:0.0 12:10.0 13:3.0 14:7.0 15:0.0 16:0.0 17:5.0 18:16.0 19:3.0 20:1.0 21:0.0 22:5.0 23:14.0 24:1.0 
0.0 0.0 0.0 0.42439247497762767 1.0 1:24.0 2:0.0 3:0.0 4:0.0 5:1.0 6:0.0 7:28.0 8:0.892857143 9:4.0 10:8.0 11:1.0 12:7.0 13:6.0 14:0.0 15:4.0 16:1.0 17:2.0 18:7.0 19:7.0 20:1.0 21:1.0 22:1.0 23:13.0 24:28.0 
0.1217404302251258 0.16135444969638232 0.06003356031433909 0.27411731200498796 1.0 1:23.0 2:0.0 3:0.0 4:0.0 5:0.0 6:2.0 7:29.0 8:0.965517241 9:4.0 10:3.0 11:1.0 12:10.0 13:3.0 14:3.0 15:1.0 16:0.0 17:3.0 18:6.0 19:3.0 20:1.0 21:1.0 22:2.0 23:13.0 24:29.0 
0.1948348641863345 0.4558125041617399 0.21564014361209785 0.21122061669060593 0.1499592066603858 1:28.0 2:0.0 3:0.0 4:0.0 5:0.0 6:1.0 7:35.0 8:0.828571429 9:5.0 10:2.0 11:0.0 12:12.0 13:5.0 14:3.0 15:0.0 16:0.0 17:3.0 18:10.0 19:7.0 20:0.0 21:0.0 22:3.0 23:11.0 24:35.0 
0.0 0.0 0.0 0.0 0.4219139924354544 1:22.0 2:0.0 3:0.0 4:0.0 5:0.0 6:1.0 7:31.0 8:0.838709677 9:4.0 10:2.0 11:6.0 12:9.0 13:4.0 14:3.0 15:2.0 16:0.0 17:3.0 18:9.0 19:7.0 20:0.0 21:0.0 22:3.0 23:13.0 24:31.0 
0.3479680059099892 0.4550699900763922 0.1816154543155616 0.2374797696790142 0.7791592575038423 1:22.0 2:0.0 3:0.0 4:0.0 5:0.0 6:1.0 7:29.0 8:0.931034483 9:4.0 10:6.0 11:3.0 12:10.0 13:4.0 14:0.0 15:2.0 16:0.0 17:4.0 18:7.0 19:8.0 20:1.0 21:1.0 22:2.0 23:17.0 24:29.0 
0.0 0.0 0.0 0.0 1.0 1:20.0 2:1.0 3:0.0 4:1.0 5:0.0 6:1.0 7:28.0 8:0.892857143 9:4.0 10:5.0 11:0.0 12:7.0 13:4.0 14:3.0 15:1.0 16:1.0 17:3.0 18:10.0 19:6.0 20:1.0 21:0.0 22:2.0 23:14.0 24:28.0 
0.1451841011434985 0.4922204827308571 0.169708986863436 0.09649874276404606 1.0 1:23.0 2:0.0 3:0.0 4:0.0 5:1.0 6:1.0 7:28.0 8:0.821428571 9:4.0 10:3.0 11:0.0 12:9.0 13:3.0 14:1.0 15:1.0 16:0.0 17:6.0 18:15.0 19:3.0 20:1.0 21:1.0 22:5.0 23:17.0 24:28.0 
0.55548026276729 0.3174294933571009 0.07038834739318979 0.19558884522878384 0.05966717267247158 1:18.0 2:1.0 3:0.0 4:1.0 5:1.0 6:1.0 7:30.0 8:0.8 9:4.0 10:3.0 11:0.0 12:7.0 13:4.0 14:5.0 15:0.0 16:0.0 17:4.0 18:10.0 19:3.0 20:0.0 21:0.0 22:4.0 23:14.0 24:30.0 
0.5218890475241117 0.0 0.0 0.0 1.0 1:21.0 2:0.0 3:0.0 4:0.0 5:0.0 6:1.0 7:31.0 8:0.806451613 9:5.0 10:1.0 11:7.0 12:10.0 13:3.0 14:3.0 15:2.0 16:0.0 17:2.0 18:10.0 19:3.0 20:0.0 21:1.0 22:3.0 23:13.0 24:31.0 
0.43874472206267784 0.0 0.0 0.0 1.0 1:19.0 2:0.0 3:0.0 4:0.0 5:0.0 6:2.0 7:28.0 8:0.857142857 9:4.0 10:3.0 11:6.0 12:10.0 13:2.0 14:3.0 15:0.0 16:0.0 17:5.0 18:13.0 19:2.0 20:0.0 21:0.0 22:5.0 23:9.0 24:28.0 
0.0 0.0 0.0 0.4245379434356259 1.0 1:20.0 2:0.0 3:0.0 4:0.0 5:0.0 6:2.0 7:26.0 8:0.923076923 9:5.0 10:3.0 11:3.0 12:8.0 13:4.0 14:4.0 15:1.0 16:0.0 17:6.0 18:7.0 19:4.0 20:0.0 21:1.0 22:4.0 23:11.0 24:26.0 
0.674500400664538 0.7163301261905222 0.2987735689417995 0.25960797179704437 0.37932332581300937 1:20.0 2:1.0 3:0.0 4:2.0 5:0.0 6:1.0 7:29.0 8:0.827586207 9:4.0 10:3.0 11:0.0 12:6.0 13:3.0 14:8.0 15:2.0 16:1.0 17:5.0 18:11.0 19:2.0 20:1.0 21:2.0 22:4.0 23:12.0 24:29.0 
0.5514259284180786 0.8760953947224737 0.42029841865248996 0.4117904789761583 0.478899019591411 1:17.0 2:0.0 3:0.0 4:2.0 5:0.0 6:1.0 7:31.0 8:0.806451613 9:4.0 10:1.0 11:5.0 12:5.0 13:3.0 14:2.0 15:3.0 16:0.0 17:6.0 18:12.0 19:3.0 20:1.0 21:1.0 22:6.0 23:10.0 24:31.0 
0.9594405603266596 1.0 0.6614372974712128 0.6604809685422504 0.7373303984094853 1:33.0 2:0.0 3:0.0 4:0.0 5:0.0 6:0.0 7:37.0 8:0.864864865 9:3.0 10:6.0 11:0.0 12:8.0 13:7.0 14:4.0 15:0.0 16:2.0 17:4.0 18:11.0 19:7.0 20:1.0 21:0.0 22:4.0 23:13.0 24:19.0 
0.3011116463208302 0.03926593948815449 0.0 0.28879310973487726 0.7820370944277489 1:21.0 2:1.0 3:0.0 4:0.0 5:0.0 6:2.0 7:28.0 8:0.928571429 9:5.0 10:3.0 11:0.0 12:8.0 13:3.0 14:6.0 15:0.0 16:0.0 17:2.0 18:11.0 19:2.0 20:2.0 21:0.0 22:3.0 23:12.0 24:28.0 
0.33759067520897823 0.3125173423541722 0.13968382769210597 0.0 0.6502450079510839 1:19.0 2:0.0 3:0.0 4:0.0 5:0.0 6:3.0 7:26.0 8:0.961538462 9:5.0 10:2.0 11:0.0 12:5.0 13:4.0 14:3.0 15:4.0 16:0.0 17:4.0 18:6.0 19:5.0 20:1.0 21:1.0 22:4.0 23:10.0 24:26.0 
0.0 0.0 0.0 0.0 1.0 1:24.0 2:0.0 3:0.0 4:0.0 5:0.0 6:2.0 7:29.0 8:0.827586207 9:4.0 10:2.0 11:0.0 12:9.0 13:3.0 14:2.0 15:0.0 16:0.0 17:4.0 18:11.0 19:3.0 20:0.0 21:0.0 22:5.0 23:12.0 24:29.0 
0.0 0.0 0.0 0.02216428752800099 0.8517585389515321 1:23.0 2:0.0 3:0.0 4:1.0 5:0.0 6:1.0 7:28.0 8:0.928571429 9:4.0 10:5.0 11:0.0 12:7.0 13:3.0 14:2.0 15:3.0 16:1.0 17:3.0 18:8.0 19:6.0 20:1.0 21:1.0 22:3.0 23:12.0 24:28.0 
0.5348936616010904 0.5925225675774082 0.2844671917312783 0.3102450063267581 1.0 1:23.0 2:0.0 3:0.0 4:0.0 5:1.0 6:1.0 7:29.0 8:0.931034483 9:4.0 10:8.0 11:0.0 12:8.0 13:7.0 14:1.0 15:2.0 16:1.0 17:3.0 18:8.0 19:9.0 20:0.0 21:1.0 22:3.0 23:10.0 24:29.0 
1.0 0.11418343116852774 0.0 0.0 0.48527756888951146 1:24.0 2:0.0 3:0.0 4:0.0 5:0.0 6:1.0 7:30.0 8:0.933333333 9:3.0 10:4.0 11:1.0 12:6.0 13:8.0 14:2.0 15:1.0 16:1.0 17:4.0 18:8.0 19:9.0 20:0.0 21:1.0 22:4.0 23:18.0 24:30.0 
0.0 0.0 0.0 0.0 0.3236753836390344 1:24.0 2:0.0 3:0.0 4:0.0 5:0.0 6:1.0 7:32.0 8:0.90625 9:4.0 10:3.0 11:5.0 12:8.0 13:3.0 14:3.0 15:3.0 16:0.0 17:4.0 18:11.0 19:3.0 20:0.0 21:2.0 22:4.0 23:11.0 24:32.0 
0.0 0.0 0.0 0.0 1.0 1:23.0 2:0.0 3:0.0 4:1.0 5:0.0 6:1.0 7:27.0 8:0.962962963 9:5.0 10:5.0 11:0.0 12:6.0 13:5.0 14:2.0 15:2.0 16:2.0 17:2.0 18:8.0 19:7.0 20:1.0 21:1.0 22:2.0 23:16.0 24:27.0 
0.0 0.0 0.0 0.0 1.0 1:25.0 2:1.0 3:0.0 4:0.0 5:1.0 6:0.0 7:30.0 8:0.833333333 9:4.0 10:2.0 11:0.0 12:9.0 13:2.0 14:4.0 15:0.0 16:1.0 17:6.0 18:11.0 19:4.0 20:0.0 21:0.0 22:7.0 23:13.0 24:30.0 
0.43975037358120866 0.08030107372702039 0.021095075886750116 0.0 1.0 1:23.0 2:0.0 3:0.0 4:0.0 5:0.0 6:2.0 7:29.0 8:0.827586207 9:5.0 10:2.0 11:3.0 12:12.0 13:2.0 14:2.0 15:0.0 16:0.0 17:5.0 18:11.0 19:2.0 20:1.0 21:0.0 22:6.0 23:13.0 24:29.0 
0.8688804375552868 1.0 0.5825403931105286 0.5979722144920605 1.0 1:21.0 2:1.0 3:0.0 4:1.0 5:1.0 6:0.0 7:32.0 8:0.8125 9:4.0 10:4.0 11:0.0 12:5.0 13:4.0 14:7.0 15:1.0 16:0.0 17:2.0 18:6.0 19:6.0 20:5.0 21:0.0 22:2.0 23:16.0 24:32.0 
0.567225427494372 0.6650190640728132 0.3306103638040543 0.6027648563231518 1.0 1:20.0 2:0.0 3:0.0 4:0.0 5:0.0 6:1.0 7:27.0 8:0.925925926 9:4.0 10:1.0 11:7.0 12:7.0 13:3.0 14:1.0 15:2.0 16:0.0 17:7.0 18:13.0 19:3.0 20:0.0 21:1.0 22:7.0 23:16.0 24:27.0 
0.2891363881889241 0.3244338611320864 0.02497024564148405 0.0 0.3113499209649756 1:23.0 2:0.0 3:0.0 4:0.0 5:0.0 6:1.0 7:29.0 8:0.862068966 9:4.0 10:4.0 11:1.0 12:7.0 13:2.0 14:5.0 15:2.0 16:2.0 17:3.0 18:11.0 19:4.0 20:1.0 21:2.0 22:3.0 23:18.0 24:29.0 
0.5966730639557872 0.35467620548410317 0.17134414796703454 0.17715426799488085 0.6600412856705743 1:24.0 2:0.0 3:0.0 4:0.0 5:0.0 6:1.0 7:33.0 8:0.878787879 9:3.0 10:1.0 11:7.0 12:7.0 13:4.0 14:4.0 15:0.0 16:0.0 17:5.0 18:10.0 19:5.0 20:0.0 21:0.0 22:6.0 23:11.0 24:33.0 
0.0 0.0 0.0 0.0 0.458555660954181 1:28.0 2:0.0 3:0.0 4:0.0 5:0.0 6:0.0 7:31.0 8:0.935483871 9:5.0 10:6.0 11:1.0 12:8.0 13:5.0 14:6.0 15:0.0 16:1.0 17:3.0 18:9.0 19:7.0 20:1.0 21:0.0 22:2.0 23:14.0 24:31.0 
0.0 0.19674978608663998 0.11539980268927628 0.08046897862581873 0.7637286670928966 1:29.0 2:0.0 3:0.0 4:0.0 5:0.0 6:0.0 7:30.0 8:0.833333333 9:5.0 10:3.0 11:0.0 12:8.0 13:5.0 14:3.0 15:1.0 16:1.0 17:5.0 18:8.0 19:6.0 20:2.0 21:1.0 22:5.0 23:15.0 24:30.0 
0.3079069883810861 0.0026980805316941217 0.0 0.00880718929530712 0.8322691078610864 1:19.0 2:0.0 3:1.0 4:2.0 5:0.0 6:1.0 7:29.0 8:0.931034483 9:6.0 10:3.0 11:0.0 12:6.0 13:5.0 14:5.0 15:1.0 16:0.0 17:3.0 18:9.0 19:5.0 20:0.0 21:1.0 22:3.0 23:11.0 24:29.0 
0.12881864238687885 0.0 0.0 0.0 0.058710124065285724 1:26.0 2:0.0 3:0.0 4:0.0 5:0.0 6:1.0 7:32.0 8:0.84375 9:5.0 10:5.0 11:0.0 12:8.0 13:4.0 14:5.0 15:1.0 16:0.0 17:3.0 18:10.0 19:5.0 20:0.0 21:0.0 22:1.0 23:13.0 24:32.0 
0.0 0.0 0.0 0.5002963472335791 0.8241737810241496 1:16.0 2:0.0 3:0.0 4:0.0 5:2.0 6:2.0 7:26.0 8:0.923076923 9:5.0 10:2.0 11:5.0 12:10.0 13:2.0 14:3.0 15:0.0 16:0.0 17:3.0 18:12.0 19:3.0 20:0.0 21:0.0 22:3.0 23:10.0 24:26.0 
0.0 0.0 0.0 0.0 0.7242749033826859 1:24.0 2:1.0 3:0.0 4:0.0 5:0.0 6:1.0 7:28.0 8:0.821428571 9:4.0 10:5.0 11:0.0 12:8.0 13:4.0 14:3.0 15:0.0 16:1.0 17:4.0 18:11.0 19:4.0 20:0.0 21:0.0 22:5.0 23:12.0 24:28.0 
0.06265372868261454 0.0 0.0 0.0 1.0 1:21.0 2:0.0 3:0.0 4:0.0 5:0.0 6:1.0 7:29.0 8:0.862068966 9:4.0 10:4.0 11:6.0 12:7.0 13:3.0 14:5.0 15:0.0 16:1.0 17:5.0 18:9.0 19:4.0 20:0.0 21:0.0 22:5.0 23:15.0 24:29.0 
0.0 0.0 0.0 0.0 1.0 1:24.0 2:0.0 3:0.0 4:0.0 5:0.0 6:1.0 7:29.0 8:0.965517241 9:4.0 10:5.0 11:4.0 12:8.0 13:4.0 14:2.0 15:1.0 16:1.0 17:3.0 18:9.0 19:5.0 20:0.0 21:0.0 22:3.0 23:11.0 24:29.0 
0.08837676845977568 0.0 0.0 0.0 1.0 1:19.0 2:0.0 3:0.0 4:1.0 5:0.0 6:2.0 7:29.0 8:0.827586207 9:4.0 10:1.0 11:5.0 12:8.0 13:3.0 14:2.0 15:1.0 16:0.0 17:3.0 18:9.0 19:2.0 20:1.0 21:1.0 22:3.0 23:12.0 24:29.0 
0.0 0.0 0.0 0.0 0.5667297578858586 1:25.0 2:1.0 3:0.0 4:0.0 5:0.0 6:1.0 7:29.0 8:0.896551724 9:4.0 10:8.0 11:0.0 12:4.0 13:6.0 14:2.0 15:3.0 16:1.0 17:4.0 18:6.0 19:8.0 20:1.0 21:3.0 22:1.0 23:12.0 24:29.0 
0.5677924730185653 0.5778555428918277 0.10433899144695999 0.0 0.36606936384331445 1:17.0 2:0.0 3:0.0 4:0.0 5:0.0 6:3.0 7:27.0 8:0.925925926 9:6.0 10:1.0 11:0.0 12:8.0 13:2.0 14:5.0 15:2.0 16:0.0 17:2.0 18:11.0 19:2.0 20:1.0 21:1.0 22:3.0 23:11.0 24:27.0 
0.49176940616097525 0.16021528195283943 0.059854766873933166 0.10358209005687838 0.9131315739854099 1:27.0 2:0.0 3:0.0 4:0.0 5:0.0 6:1.0 7:31.0 8:0.774193548 9:4.0 10:1.0 11:3.0 12:9.0 13:1.0 14:5.0 15:0.0 16:0.0 17:5.0 18:13.0 19:2.0 20:1.0 21:0.0 22:7.0 23:9.0 24:31.0 
0.7877528216148949 0.9627322014277578 0.4566015430817183 0.6976365840770125 1.0 1:16.0 2:1.0 3:0.0 4:1.0 5:0.0 6:1.0 7:27.0 8:1.0 9:5.0 10:8.0 11:4.0 12:7.0 13:4.0 14:4.0 15:3.0 16:1.0 17:1.0 18:6.0 19:4.0 20:3.0 21:0.0 22:1.0 23:10.0 24:27.0 
0.07853998155023441 0.0 0.0 0.0 0.0 1:21.0 2:0.0 3:0.0 4:0.0 5:0.0 6:2.0 7:31.0 8:0.870967742 9:5.0 10:4.0 11:5.0 12:8.0 13:3.0 14:5.0 15:0.0 16:0.0 17:3.0 18:12.0 19:4.0 20:0.0 21:0.0 22:3.0 23:10.0 24:31.0 
0.0873738364064668 0.0 0.0 0.0 0.05518563833556507 1:27.0 2:0.0 3:0.0 4:1.0 5:0.0 6:0.0 7:31.0 8:0.903225806 9:6.0 10:3.0 11:1.0 12:9.0 13:4.0 14:4.0 15:3.0 16:0.0 17:4.0 18:11.0 19:2.0 20:1.0 21:1.0 22:5.0 23:10.0 24:31.0 
0.0 0.0 0.0 0.1551562943397866 0.4603682105652483 1:21.0 2:0.0 3:0.0 4:0.0 5:2.0 6:1.0 7:28.0 8:0.857142857 9:4.0 10:3.0 11:0.0 12:8.0 13:3.0 14:5.0 15:2.0 16:0.0 17:3.0 18:9.0 19:2.0 20:1.0 21:1.0 22:2.0 23:14.0 24:28.0 
0.35661565077386187 0.0 0.0 0.0 0.766757043399222 1:25.0 2:1.0 3:0.0 4:0.0 5:0.0 6:1.0 7:31.0 8:0.838709677 9:4.0 10:4.0 11:1.0 12:9.0 13:3.0 14:4.0 15:0.0 16:0.0 17:6.0 18:12.0 19:3.0 20:0.0 21:0.0 22:6.0 23:9.0 24:31.0 
0.46578346305289503 0.713912039880157 0.4276238547590886 0.6996661060492938 1.0 1:15.0 2:0.0 3:0.0 4:1.0 5:0.0 6:3.0 7:25.0 8:0.88 9:5.0 10:4.0 11:5.0 12:3.0 13:5.0 14:3.0 15:3.0 16:0.0 17:2.0 18:6.0 19:5.0 20:1.0 21:1.0 22:3.0 23:10.0 24:25.0 
0.6128476513460213 0.7984952899616544 0.3497096243043437 0.3123518943111369 0.7475248165140519 1:15.0 2:1.0 3:0.0 4:0.0 5:0.0 6:1.0 7:30.0 8:0.833333333 9:4.0 10:1.0 11:11.0 12:13.0 13:2.0 14:1.0 15:1.0 16:0.0 17:3.0 18:14.0 19:2.0 20:0.0 21:1.0 22:3.0 23:12.0 24:30.0 
0.10591538464403996 0.21833484692814026 0.11446601246378761 0.13945359695081538 0.5134141137626125 1:26.0 2:2.0 3:0.0 4:0.0 5:0.0 6:0.0 7:30.0 8:0.933333333 9:4.0 10:5.0 11:0.0 12:9.0 13:6.0 14:0.0 15:0.0 16:0.0 17:5.0 18:14.0 19:6.0 20:0.0 21:0.0 22:5.0 23:14.0 24:30.0 
0.04843999960084877 0.0 0.0 0.0 0.0 1:22.0 2:0.0 3:0.0 4:0.0 5:0.0 6:1.0 7:33.0 8:0.96969697 9:4.0 10:3.0 11:5.0 12:7.0 13:4.0 14:5.0 15:1.0 16:0.0 17:4.0 18:10.0 19:5.0 20:1.0 21:0.0 22:4.0 23:11.0 24:33.0 
0.6617283545382983 0.5028039945463944 0.24116483893206053 0.30590893153052306 0.9452198074477925 1:24.0 2:0.0 3:0.0 4:0.0 5:0.0 6:1.0 7:31.0 8:0.838709677 9:4.0 10:5.0 11:1.0 12:4.0 13:3.0 14:6.0 15:4.0 16:1.0 17:1.0 18:7.0 19:4.0 20:2.0 21:1.0 22:1.0 23:11.0 24:31.0 
0.0 0.29542337314589245 0.14576921240449617 0.15826763527204157 0.3748963343997959 1:28.0 2:0.0 3:0.0 4:0.0 5:0.0 6:0.0 7:30.0 8:0.933333333 9:4.0 10:7.0 11:3.0 12:5.0 13:6.0 14:1.0 15:3.0 16:2.0 17:4.0 18:9.0 19:6.0 20:1.0 21:1.0 22:2.0 23:10.0 24:30.0 
0.0 0.0 0.0 0.0 0.7248900296342522 1:23.0 2:1.0 3:0.0 4:0.0 5:0.0 6:1.0 7:29.0 8:0.862068966 9:4.0 10:3.0 11:2.0 12:6.0 13:4.0 14:5.0 15:0.0 16:0.0 17:5.0 18:12.0 19:4.0 20:0.0 21:0.0 22:4.0 23:17.0 24:29.0 
0.0 0.0 0.0 0.0 1.0 1:25.0 2:0.0 3:0.0 4:0.0 5:0.0 6:1.0 7:29.0 8:0.931034483 9:4.0 10:8.0 11:0.0 12:5.0 13:7.0 14:2.0 15:1.0 16:1.0 17:3.0 18:6.0 19:8.0 20:1.0 21:0.0 22:1.0 23:15.0 24:29.0 
0.1639133090113914 0.12651201065060344 0.06471362499759407 0.0 0.6840781412836682 1:26.0 2:0.0 3:0.0 4:0.0 5:0.0 6:0.0 7:27.0 8:0.851851852 9:3.0 10:9.0 11:0.0 12:3.0 13:6.0 14:2.0 15:3.0 16:3.0 17:3.0 18:7.0 19:8.0 20:0.0 21:0.0 22:1.0 23:18.0 24:27.0 
0.6773587244008802 0.9745403521610593 0.48330534681630666 0.4858821485534917 0.750340018295765 1:27.0 2:0.0 3:0.0 4:0.0 5:0.0 6:0.0 7:29.0 8:0.862068966 9:3.0 10:6.0 11:0.0 12:4.0 13:7.0 14:0.0 15:1.0 16:2.0 17:5.0 18:9.0 19:13.0 20:0.0 21:0.0 22:2.0 23:15.0 24:29.0 
0.12443204990415593 0.0 0.0 0.0 0.0 1:29.0 2:0.0 3:0.0 4:0.0 5:0.0 6:0.0 7:31.0 8:0.806451613 9:4.0 10:6.0 11:0.0 12:6.0 13:4.0 14:3.0 15:3.0 16:3.0 17:4.0 18:10.0 19:6.0 20:0.0 21:1.0 22:3.0 23:11.0 24:31.0 
0.0 0.0 0.0 0.0 1.0 1:21.0 2:1.0 3:0.0 4:0.0 5:0.0 6:1.0 7:27.0 8:0.962962963 9:4.0 10:4.0 11:0.0 12:8.0 13:2.0 14:3.0 15:2.0 16:1.0 17:5.0 18:12.0 19:4.0 20:0.0 21:1.0 22:6.0 23:16.0 24:27.0 
0.2267776000992983 0.036582582100708416 0.0 0.7632346254840537 1.0 1:17.0 2:1.0 3:0.0 4:0.0 5:0.0 6:2.0 7:25.0 8:0.96 9:4.0 10:1.0 11:3.0 12:8.0 13:2.0 14:3.0 15:3.0 16:0.0 17:4.0 18:11.0 19:2.0 20:2.0 21:0.0 22:5.0 23:13.0 24:25.0 
0.19120181793500537 0.0 0.0 0.27471278558573625 1.0 1:24.0 2:0.0 3:0.0 4:0.0 5:0.0 6:2.0 7:28.0 8:0.892857143 9:4.0 10:6.0 11:0.0 12:4.0 13:6.0 14:2.0 15:2.0 16:1.0 17:3.0 18:6.0 19:5.0 20:1.0 21:1.0 22:3.0 23:13.0 24:28.0 
0.0 0.0 0.0 0.0 0.6661168150591101 1:23.0 2:0.0 3:0.0 4:0.0 5:0.0 6:1.0 7:27.0 8:0.851851852 9:4.0 10:9.0 11:0.0 12:4.0 13:7.0 14:1.0 15:0.0 16:4.0 17:3.0 18:8.0 19:8.0 20:0.0 21:0.0 22:1.0 23:15.0 24:27.0 
0.0 0.0 0.0 0.0 1.0 1:22.0 2:0.0 3:0.0 4:0.0 5:0.0 6:1.0 7:28.0 8:1.0 9:4.0 10:6.0 11:0.0 12:6.0 13:5.0 14:1.0 15:2.0 16:1.0 17:5.0 18:8.0 19:6.0 20:1.0 21:0.0 22:3.0 23:15.0 24:28.0 
0.5046966465343479 0.6932039265110048 0.3446432983416309 0.31525973561232695 1.0 1:20.0 2:0.0 3:0.0 4:0.0 5:0.0 6:2.0 7:28.0 8:0.964285714 9:3.0 10:4.0 11:10.0 12:8.0 13:4.0 14:1.0 15:1.0 16:1.0 17:2.0 18:9.0 19:5.0 20:1.0 21:0.0 22:2.0 23:16.0 24:28.0 
0.0 0.0 0.0 0.0 0.30051353694344807 1:24.0 2:0.0 3:0.0 4:0.0 5:0.0 6:1.0 7:29.0 8:0.931034483 9:4.0 10:3.0 11:0.0 12:7.0 13:5.0 14:3.0 15:0.0 16:1.0 17:4.0 18:11.0 19:4.0 20:0.0 21:0.0 22:5.0 23:12.0 24:29.0 
0.39032588420680236 0.0 0.0 0.0 0.0 1:24.0 2:1.0 3:0.0 4:0.0 5:0.0 6:1.0 7:29.0 8:0.965517241 9:4.0 10:7.0 11:1.0 12:4.0 13:5.0 14:4.0 15:1.0 16:3.0 17:3.0 18:7.0 19:6.0 20:1.0 21:1.0 22:3.0 23:16.0 24:29.0 
0.537626858259417 0.6885849057470601 0.32555670903961437 0.5882705346759324 0.9991050751425344 1:21.0 2:0.0 3:0.0 4:0.0 5:3.0 6:0.0 7:26.0 8:0.884615385 9:4.0 10:6.0 11:0.0 12:8.0 13:5.0 14:1.0 15:1.0 16:0.0 17:6.0 18:9.0 19:6.0 20:1.0 21:0.0 22:3.0 23:19.0 24:26.0 
0.6394577988248696 0.6284508948384536 0.2880315151796525 0.2347935132458215 1.0 1:21.0 2:0.0 3:0.0 4:0.0 5:0.0 6:2.0 7:25.0 8:0.96 9:5.0 10:6.0 11:0.0 12:5.0 13:5.0 14:1.0 15:2.0 16:0.0 17:4.0 18:9.0 19:6.0 20:1.0 21:1.0 22:4.0 23:22.0 24:25.0 
1.0 0.0 0.0 0.0 0.0 1:22.0 2:2.0 3:0.0 4:0.0 5:0.0 6:2.0 7:31.0 8:0.806451613 9:3.0 10:5.0 11:1.0 12:7.0 13:4.0 14:2.0 15:0.0 16:1.0 17:5.0 18:9.0 19:5.0 20:0.0 21:0.0 22:3.0 23:13.0 24:31.0 
0.13051411481767902 0.0 0.0 0.0 0.0 1:22.0 2:0.0 3:0.0 4:0.0 5:0.0 6:1.0 7:32.0 8:0.8125 9:3.0 10:3.0 11:8.0 12:12.0 13:3.0 14:0.0 15:0.0 16:0.0 17:4.0 18:13.0 19:3.0 20:0.0 21:0.0 22:4.0 23:13.0 24:32.0 
0.0 0.0 0.0 0.0 0.912735213848884 1:23.0 2:0.0 3:0.0 4:1.0 5:0.0 6:1.0 7:31.0 8:0.806451613 9:4.0 10:3.0 11:4.0 12:8.0 13:4.0 14:5.0 15:0.0 16:0.0 17:5.0 18:9.0 19:5.0 20:2.0 21:0.0 22:4.0 23:10.0 24:31.0 
0.0 0.0 0.003029992892726735 0.0 0.0 1:28.0 2:0.0 3:0.0 4:0.0 5:0.0 6:0.0 7:29.0 8:0.862068966 9:4.0 10:9.0 11:1.0 12:3.0 13:7.0 14:4.0 15:2.0 16:2.0 17:4.0 18:6.0 19:8.0 20:2.0 21:0.0 22:2.0 23:16.0 24:29.0 
0.061156566615585876 0.0 0.0 0.0 0.475202060902005 1:25.0 2:1.0 3:0.0 4:0.0 5:0.0 6:1.0 7:30.0 8:0.833333333 9:4.0 10:3.0 11:0.0 12:8.0 13:3.0 14:2.0 15:1.0 16:1.0 17:5.0 18:13.0 19:3.0 20:1.0 21:0.0 22:7.0 23:11.0 24:30.0 
0.0 0.0 0.0 0.0 0.14149364114699234 1:28.0 2:0.0 3:0.0 4:0.0 5:0.0 6:0.0 7:30.0 8:0.966666667 9:5.0 10:6.0 11:1.0 12:6.0 13:5.0 14:5.0 15:1.0 16:1.0 17:3.0 18:7.0 19:7.0 20:2.0 21:0.0 22:2.0 23:16.0 24:30.0 
0.31784997017787264 0.4607205125253092 0.16956373939919359 0.18901134314131085 0.8461432636629723 1:18.0 2:1.0 3:0.0 4:0.0 5:2.0 6:1.0 7:30.0 8:0.933333333 9:5.0 10:5.0 11:3.0 12:9.0 13:3.0 14:6.0 15:0.0 16:1.0 17:4.0 18:10.0 19:4.0 20:0.0 21:0.0 22:3.0 23:10.0 24:30.0 
0.7812442332855242 0.0 0.0 0.0 0.5622823113975226 1:23.0 2:0.0 3:0.0 4:0.0 5:0.0 6:1.0 7:30.0 8:0.833333333 9:4.0 10:6.0 11:2.0 12:7.0 13:4.0 14:4.0 15:0.0 16:0.0 17:4.0 18:11.0 19:4.0 20:2.0 21:0.0 22:3.0 23:18.0 24:30.0 
0.2369194379276365 0.0 0.0 0.05248121961387876 1.0 1:20.0 2:0.0 3:0.0 4:1.0 5:0.0 6:1.0 7:27.0 8:0.962962963 9:4.0 10:3.0 11:6.0 12:10.0 13:3.0 14:2.0 15:0.0 16:0.0 17:5.0 18:13.0 19:3.0 20:0.0 21:0.0 22:4.0 23:13.0 24:27.0 
0.0 0.0 0.0 0.0 0.9967568590542332 1:23.0 2:0.0 3:1.0 4:0.0 5:0.0 6:1.0 7:28.0 8:0.892857143 9:5.0 10:3.0 11:2.0 12:9.0 13:5.0 14:3.0 15:1.0 16:0.0 17:3.0 18:9.0 19:6.0 20:0.0 21:0.0 22:3.0 23:14.0 24:28.0 
0.48442336109067696 0.28038611207584757 0.1177775593984572 0.0 0.9989507873668623 1:23.0 2:0.0 3:0.0 4:0.0 5:0.0 6:0.0 7:29.0 8:0.862068966 9:4.0 10:7.0 11:0.0 12:5.0 13:5.0 14:1.0 15:4.0 16:4.0 17:1.0 18:9.0 19:6.0 20:0.0 21:3.0 22:2.0 23:15.0 24:29.0 
0.15285470399873038 0.07747242563963881 0.0 0.0 1.0 1:21.0 2:0.0 3:0.0 4:0.0 5:0.0 6:1.0 7:29.0 8:0.965517241 9:5.0 10:6.0 11:1.0 12:5.0 13:5.0 14:5.0 15:4.0 16:1.0 17:3.0 18:6.0 19:5.0 20:1.0 21:2.0 22:1.0 23:14.0 24:29.0 
1.0 0.44528393387035126 0.0 0.0 0.5367942092991704 1:23.0 2:0.0 3:0.0 4:0.0 5:0.0 6:2.0 7:32.0 8:0.78125 9:5.0 10:3.0 11:2.0 12:11.0 13:5.0 14:0.0 15:2.0 16:0.0 17:4.0 18:11.0 19:5.0 20:0.0 21:1.0 22:4.0 23:12.0 24:32.0 
0.4947595731483537 0.0 0.0 0.0 0.334466423939883 1:22.0 2:0.0 3:0.0 4:0.0 5:0.0 6:1.0 7:32.0 8:0.84375 9:4.0 10:3.0 11:8.0 12:11.0 13:3.0 14:1.0 15:1.0 16:1.0 17:4.0 18:11.0 19:2.0 20:0.0 21:1.0 22:5.0 23:13.0 24:32.0 
0.9117080986434798 1.0 0.5115828645478058 0.71444665438726 1.0 1:21.0 2:0.0 3:0.0 4:0.0 5:1.0 6:1.0 7:30.0 8:0.833333333 9:5.0 10:2.0 11:0.0 12:14.0 13:3.0 14:1.0 15:0.0 16:0.0 17:3.0 18:11.0 19:2.0 20:0.0 21:0.0 22:3.0 23:10.0 24:30.0 
0.27481990621901314 0.1352280109555508 0.07611522672634391 0.3449736540522797 1.0 1:20.0 2:0.0 3:0.0 4:1.0 5:1.0 6:0.0 7:29.0 8:0.965517241 9:5.0 10:4.0 11:2.0 12:6.0 13:4.0 14:5.0 15:4.0 16:1.0 17:3.0 18:6.0 19:4.0 20:2.0 21:3.0 22:2.0 23:12.0 24:29.0 
0.22304941412544604 0.10417580934043373 0.0731987872136997 0.0 0.2988976231665791 1:20.0 2:0.0 3:0.0 4:0.0 5:0.0 6:1.0 7:31.0 8:0.903225806 9:4.0 10:6.0 11:5.0 12:7.0 13:5.0 14:4.0 15:2.0 16:2.0 17:1.0 18:10.0 19:5.0 20:0.0 21:0.0 22:1.0 23:10.0 24:31.0 
0.5002351045930427 0.6351372400068094 0.2744935907283066 0.6130698699096366 1.0 1:16.0 2:1.0 3:0.0 4:0.0 5:0.0 6:2.0 7:30.0 8:0.866666667 9:4.0 10:1.0 11:6.0 12:12.0 13:3.0 14:2.0 15:0.0 16:0.0 17:4.0 18:8.0 19:3.0 20:0.0 21:0.0 22:4.0 23:9.0 24:30.0 
0.3836188100044212 0.0 0.0 0.0 0.0 1:24.0 2:0.0 3:0.0 4:0.0 5:0.0 6:2.0 7:29.0 8:0.965517241 9:4.0 10:2.0 11:0.0 12:9.0 13:5.0 14:3.0 15:0.0 16:1.0 17:4.0 18:9.0 19:6.0 20:0.0 21:0.0 22:5.0 23:14.0 24:29.0 
0.0 0.0 0.0 0.0 0.1466901933769451 1:25.0 2:1.0 3:0.0 4:0.0 5:0.0 6:1.0 7:30.0 8:0.833333333 9:3.0 10:5.0 11:0.0 12:7.0 13:4.0 14:3.0 15:1.0 16:2.0 17:2.0 18:9.0 19:7.0 20:0.0 21:1.0 22:2.0 23:13.0 24:30.0 
0.1629755576456087 0.1804802573479605 0.0934764312813979 0.0028559185526096254 0.9488098201058943 1:23.0 2:0.0 3:0.0 4:0.0 5:0.0 6:1.0 7:28.0 8:0.928571429 9:3.0 10:7.0 11:3.0 12:4.0 13:6.0 14:1.0 15:2.0 16:3.0 17:4.0 18:6.0 19:7.0 20:3.0 21:0.0 22:1.0 23:15.0 24:28.0 
0.0 0.0 0.0 0.0 0.12020250646324317 1:24.0 2:0.0 3:0.0 4:0.0 5:0.0 6:0.0 7:32.0 8:0.9375 9:3.0 10:6.0 11:4.0 12:9.0 13:5.0 14:0.0 15:1.0 16:1.0 17:3.0 18:11.0 19:5.0 20:0.0 21:1.0 22:4.0 23:16.0 24:32.0 
0.0 0.0 0.0 0.0 0.30826584017487 1:29.0 2:0.0 3:0.0 4:0.0 5:0.0 6:0.0 7:31.0 8:0.709677419 9:4.0 10:5.0 11:0.0 12:7.0 13:3.0 14:1.0 15:1.0 16:2.0 17:4.0 18:11.0 19:4.0 20:2.0 21:0.0 22:5.0 23:16.0 24:31.0 
0.6917095835812439 0.997652851960253 0.5193676930149949 0.5184398876224988 0.5595479667657886 1:16.0 2:4.0 3:0.0 4:3.0 5:1.0 6:1.0 7:31.0 8:0.870967742 9:5.0 10:1.0 11:0.0 12:10.0 13:3.0 14:7.0 15:0.0 16:0.0 17:5.0 18:16.0 19:3.0 20:1.0 21:0.0 22:5.0 23:14.0 24:1.0 
0.0 0.0 0.0 0.0 1.0 1:27.0 2:0.0 3:0.0 4:0.0 5:0.0 6:1.0 7:31.0 8:0.903225806 9:4.0 10:3.0 11:0.0 12:9.0 13:4.0 14:3.0 15:2.0 16:0.0 17:3.0 18:10.0 19:4.0 20:0.0 21:2.0 22:5.0 23:9.0 24:31.0 
0.0 0.04727229605826405 0.05282074814398779 0.703795867070394 1.0 1:19.0 2:0.0 3:0.0 4:0.0 5:1.0 6:1.0 7:28.0 8:0.928571429 9:5.0 10:3.0 11:1.0 12:10.0 13:4.0 14:4.0 15:1.0 16:0.0 17:4.0 18:7.0 19:3.0 20:3.0 21:1.0 22:3.0 23:11.0 24:28.0 
0.6810228151728479 0.9716896321490672 0.4903520345146312 0.5381270771592681 0.7894583564724 1:12.0 2:0.0 3:0.0 4:0.0 5:0.0 6:2.0 7:30.0 8:0.8 9:3.0 10:5.0 11:7.0 12:10.0 13:3.0 14:2.0 15:1.0 16:1.0 17:1.0 18:11.0 19:4.0 20:0.0 21:0.0 22:1.0 23:15.0 24:30.0 
0.10471980704864187 0.2166606084228786 0.14115958439222268 0.14541729578458346 1.0 1:25.0 2:0.0 3:0.0 4:0.0 5:0.0 6:1.0 7:30.0 8:0.9 9:4.0 10:3.0 11:3.0 12:6.0 13:3.0 14:0.0 15:2.0 16:2.0 17:6.0 18:8.0 19:4.0 20:0.0 21:2.0 22:4.0 23:10.0 24:30.0 
0.2775163035646467 0.21543882334290032 0.031773432561305576 0.3904959392363339 1.0 1:21.0 2:0.0 3:0.0 4:1.0 5:0.0 6:1.0 7:30.0 8:0.8 9:4.0 10:3.0 11:4.0 12:10.0 13:2.0 14:1.0 15:1.0 16:0.0 17:6.0 18:12.0 19:2.0 20:0.0 21:1.0 22:6.0 23:8.0 24:30.0 
0.0 0.0 0.0 0.0 1.0 1:22.0 2:1.0 3:0.0 4:0.0 5:1.0 6:0.0 7:28.0 8:0.928571429 9:5.0 10:5.0 11:2.0 12:9.0 13:3.0 14:4.0 15:2.0 16:1.0 17:4.0 18:10.0 19:3.0 20:0.0 21:1.0 22:4.0 23:12.0 24:28.0 
0.2005858727939787 0.5345957444441701 0.23537389906774198 0.18073258059180752 0.0 1:25.0 2:0.0 3:0.0 4:0.0 5:0.0 6:0.0 7:31.0 8:0.806451613 9:4.0 10:6.0 11:0.0 12:4.0 13:6.0 14:0.0 15:6.0 16:1.0 17:2.0 18:7.0 19:6.0 20:1.0 21:2.0 22:4.0 23:17.0 24:31.0 
0.2525447028652211 0.3678850565027405 0.2060588441599004 0.17139006020886224 0.3030479527356692 1:25.0 2:0.0 3:1.0 4:0.0 5:0.0 6:1.0 7:30.0 8:0.8 9:4.0 10:2.0 11:7.0 12:9.0 13:5.0 14:1.0 15:1.0 16:0.0 17:2.0 18:10.0 19:6.0 20:0.0 21:1.0 22:3.0 23:13.0 24:30.0 
0.047337014756832926 0.1224469829583181 0.08691111001134372 1.0 1.0 1:21.0 2:0.0 3:0.0 4:0.0 5:0.0 6:2.0 7:26.0 8:0.923076923 9:4.0 10:6.0 11:4.0 12:6.0 13:6.0 14:1.0 15:2.0 16:1.0 17:2.0 18:6.0 19:6.0 20:1.0 21:2.0 22:2.0 23:11.0 24:26.0 
0.007431430373282356 0.0 0.0 0.004965345298078443 0.5377167915158648 1:24.0 2:0.0 3:0.0 4:1.0 5:0.0 6:1.0 7:29.0 8:0.931034483 9:4.0 10:3.0 11:1.0 12:6.0 13:4.0 14:4.0 15:3.0 16:1.0 17:3.0 18:8.0 19:6.0 20:3.0 21:0.0 22:3.0 23:11.0 24:29.0 
0.5995852851369061 0.93498345427099 0.44206348203483115 0.5885420871260967 0.9031455902981742 1:18.0 2:4.0 3:0.0 4:1.0 5:1.0 6:1.0 7:28.0 8:0.928571429 9:6.0 10:2.0 11:0.0 12:8.0 13:2.0 14:6.0 15:3.0 16:0.0 17:4.0 18:10.0 19:2.0 20:3.0 21:0.0 22:4.0 23:9.0 24:28.0 
0.19755343714664186 0.0 0.0 0.0 0.5933348995941862 1:24.0 2:0.0 3:0.0 4:0.0 5:0.0 6:1.0 7:31.0 8:0.838709677 9:5.0 10:2.0 11:1.0 12:8.0 13:5.0 14:5.0 15:1.0 16:0.0 17:2.0 18:9.0 19:7.0 20:1.0 21:0.0 22:3.0 23:11.0 24:31.0 
0.0 0.0 0.0 0.0 0.658042252379855 1:25.0 2:0.0 3:0.0 4:0.0 5:0.0 6:1.0 7:28.0 8:1.0 9:4.0 10:7.0 11:0.0 12:4.0 13:4.0 14:4.0 15:3.0 16:1.0 17:4.0 18:8.0 19:6.0 20:0.0 21:1.0 22:1.0 23:16.0 24:28.0 
0.5112943618891549 0.6357311472449716 0.26830794767121746 0.7620633317792833 1.0 1:18.0 2:0.0 3:0.0 4:0.0 5:0.0 6:2.0 7:24.0 8:0.666666667 9:5.0 10:7.0 11:0.0 12:9.0 13:5.0 14:2.0 15:2.0 16:0.0 17:3.0 18:11.0 19:5.0 20:0.0 21:1.0 22:3.0 23:13.0 24:24.0 
0.0 0.0 0.0 0.0 0.24806775940456513 1:25.0 2:0.0 3:0.0 4:0.0 5:0.0 6:1.0 7:29.0 8:0.862068966 9:5.0 10:5.0 11:1.0 12:9.0 13:4.0 14:3.0 15:0.0 16:0.0 17:2.0 18:12.0 19:6.0 20:0.0 21:0.0 22:3.0 23:14.0 24:29.0 
0.18343653512172128 0.20490127306534517 0.13561511701855256 0.22940367918596175 0.5648775449472738 1:25.0 2:3.0 3:0.0 4:0.0 5:0.0 6:0.0 7:31.0 8:0.870967742 9:4.0 10:6.0 11:1.0 12:7.0 13:3.0 14:5.0 15:1.0 16:1.0 17:2.0 18:9.0 19:6.0 20:2.0 21:0.0 22:3.0 23:9.0 24:31.0 
0.18044741928892907 0.0 0.0 0.0 0.816674989222921 1:25.0 2:0.0 3:0.0 4:0.0 5:0.0 6:1.0 7:30.0 8:0.8 9:4.0 10:4.0 11:1.0 12:5.0 13:3.0 14:3.0 15:3.0 16:1.0 17:5.0 18:9.0 19:3.0 20:2.0 21:0.0 22:5.0 23:10.0 24:30.0 
0.8813485312831122 0.8481516099745564 0.17613108808837283 0.1802404192194085 0.7598895699434437 1:23.0 2:0.0 3:0.0 4:0.0 5:1.0 6:0.0 7:34.0 8:0.794117647 9:3.0 10:5.0 11:1.0 12:7.0 13:3.0 14:0.0 15:2.0 16:0.0 17:5.0 18:12.0 19:4.0 20:1.0 21:0.0 22:4.0 23:13.0 24:34.0 
0.05454936817729476 0.0 0.0 0.0 0.0 1:23.0 2:0.0 3:0.0 4:0.0 5:0.0 6:2.0 7:29.0 8:0.827586207 9:4.0 10:1.0 11:0.0 12:6.0 13:3.0 14:3.0 15:1.0 16:1.0 17:5.0 18:10.0 19:3.0 20:0.0 21:1.0 22:5.0 23:12.0 24:29.0 
0.0 0.0 0.0 0.0 0.23749375897276007 1:25.0 2:2.0 3:0.0 4:0.0 5:1.0 6:0.0 7:31.0 8:0.870967742 9:5.0 10:3.0 11:2.0 12:7.0 13:3.0 14:3.0 15:1.0 16:2.0 17:3.0 18:12.0 19:4.0 20:0.0 21:1.0 22:3.0 23:9.0 24:31.0 
0.0 0.0 0.0 0.0 0.5607987732176787 1:22.0 2:0.0 3:0.0 4:2.0 5:0.0 6:0.0 7:31.0 8:0.806451613 9:4.0 10:5.0 11:1.0 12:8.0 13:4.0 14:2.0 15:2.0 16:1.0 17:4.0 18:11.0 19:5.0 20:0.0 21:1.0 22:2.0 23:12.0 24:31.0 
0.04632167109627946 0.0 0.0 0.0 1.0 1:21.0 2:1.0 3:0.0 4:1.0 5:0.0 6:1.0 7:30.0 8:0.9 9:5.0 10:6.0 11:1.0 12:8.0 13:3.0 14:3.0 15:2.0 16:0.0 17:3.0 18:8.0 19:4.0 20:0.0 21:2.0 22:2.0 23:10.0 24:30.0 
0.0 0.0 0.0 0.0 0.250992306843111 1:21.0 2:0.0 3:0.0 4:1.0 5:0.0 6:1.0 7:27.0 8:0.851851852 9:4.0 10:5.0 11:0.0 12:6.0 13:4.0 14:1.0 15:1.0 16:3.0 17:5.0 18:11.0 19:5.0 20:1.0 21:1.0 22:4.0 23:12.0 24:27.0 
0.22433083281575417 0.11357783766366258 0.0 0.0 0.9317398023872029 1:18.0 2:1.0 3:0.0 4:0.0 5:1.0 6:2.0 7:27.0 8:0.925925926 9:5.0 10:3.0 11:0.0 12:6.0 13:3.0 14:5.0 15:2.0 16:0.0 17:4.0 18:10.0 19:2.0 20:1.0 21:0.0 22:3.0 23:15.0 24:27.0 
0.0 0.0 0.0 0.0 0.3519341262994006 1:21.0 2:0.0 3:0.0 4:0.0 5:0.0 6:1.0 7:30.0 8:0.866666667 9:4.0 10:5.0 11:4.0 12:11.0 13:4.0 14:1.0 15:0.0 16:0.0 17:4.0 18:10.0 19:5.0 20:0.0 21:0.0 22:2.0 23:14.0 24:30.0 
0.9282212892149522 1.0 0.5929676462563584 0.629044300954897 0.8762795707878227 1:21.0 2:0.0 3:0.0 4:0.0 5:0.0 6:2.0 7:31.0 8:0.903225806 9:4.0 10:3.0 11:1.0 12:5.0 13:4.0 14:3.0 15:3.0 16:0.0 17:5.0 18:11.0 19:6.0 20:1.0 21:2.0 22:4.0 23:15.0 24:22.0 
0.0 0.0 0.0 0.02634451141257748 1.0 1:19.0 2:0.0 3:0.0 4:1.0 5:1.0 6:1.0 7:26.0 8:0.961538462 9:6.0 10:4.0 11:2.0 12:8.0 13:4.0 14:5.0 15:1.0 16:0.0 17:3.0 18:9.0 19:5.0 20:0.0 21:1.0 22:3.0 23:14.0 24:26.0 
0.0 0.0 0.0 0.0 1.0 1:21.0 2:0.0 3:0.0 4:0.0 5:0.0 6:1.0 7:30.0 8:0.866666667 9:4.0 10:5.0 11:4.0 12:11.0 13:4.0 14:1.0 15:0.0 16:0.0 17:4.0 18:10.0 19:5.0 20:0.0 21:0.0 22:2.0 23:14.0 24:30.0 
0.0 0.0 0.0 0.0 0.02843299725311771 1:25.0 2:0.0 3:0.0 4:0.0 5:1.0 6:0.0 7:30.0 8:0.933333333 9:5.0 10:6.0 11:0.0 12:6.0 13:5.0 14:3.0 15:2.0 16:0.0 17:4.0 18:8.0 19:6.0 20:2.0 21:0.0 22:2.0 23:16.0 24:30.0 
0.5096415379598729 0.3072302481016512 0.03372676968813205 0.0 0.2931863140009186 1:21.0 2:2.0 3:0.0 4:0.0 5:0.0 6:2.0 7:29.0 8:0.862068966 9:5.0 10:1.0 11:0.0 12:9.0 13:2.0 14:6.0 15:1.0 16:1.0 17:4.0 18:9.0 19:4.0 20:1.0 21:2.0 22:4.0 23:10.0 24:29.0 
0.0 0.0 0.0 0.0 0.8294373712907084 1:24.0 2:1.0 3:0.0 4:0.0 5:0.0 6:1.0 7:29.0 8:0.965517241 9:5.0 10:4.0 11:1.0 12:9.0 13:4.0 14:4.0 15:1.0 16:0.0 17:5.0 18:9.0 19:4.0 20:0.0 21:1.0 22:4.0 23:11.0 24:29.0 
0.31252353978535896 0.30535510473832195 0.16954125441449053 0.3779729614893589 1.0 1:24.0 2:0.0 3:0.0 4:0.0 5:0.0 6:1.0 7:29.0 8:0.862068966 9:6.0 10:3.0 11:1.0 12:7.0 13:4.0 14:6.0 15:1.0 16:0.0 17:4.0 18:7.0 19:6.0 20:0.0 21:0.0 22:5.0 23:12.0 24:29.0 
1.0 0.9224237529423037 0.42712978756554953 0.42596913047789353 0.47243003950157175 1:30.0 2:0.0 3:0.0 4:0.0 5:0.0 6:0.0 7:36.0 8:0.916666667 9:3.0 10:7.0 11:0.0 12:6.0 13:6.0 14:3.0 15:5.0 16:1.0 17:4.0 18:6.0 19:8.0 20:3.0 21:3.0 22:3.0 23:14.0 24:36.0 
0.8570541236983573 0.7576538875272721 0.1548175345816344 0.11723097132085053 0.052066481361905954 1:22.0 2:0.0 3:0.0 4:0.0 5:0.0 6:1.0 7:32.0 8:1.0 9:4.0 10:4.0 11:6.0 12:13.0 13:3.0 14:2.0 15:0.0 16:2.0 17:5.0 18:14.0 19:5.0 20:0.0 21:0.0 22:4.0 23:12.0 24:32.0 
0.06460774464963376 0.0 0.0 0.0 0.19890863458620583 1:25.0 2:0.0 3:0.0 4:0.0 5:0.0 6:0.0 7:31.0 8:0.967741935 9:4.0 10:6.0 11:3.0 12:7.0 13:5.0 14:3.0 15:3.0 16:0.0 17:5.0 18:10.0 19:6.0 20:2.0 21:2.0 22:5.0 23:16.0 24:31.0 
0.8576135337506113 0.14559101013239373 0.0563636505593338 0.05798403206248907 0.03213371313767433 1:29.0 2:0.0 3:0.0 4:0.0 5:0.0 6:0.0 7:32.0 8:0.9375 9:4.0 10:8.0 11:1.0 12:5.0 13:9.0 14:2.0 15:3.0 16:1.0 17:5.0 18:8.0 19:10.0 20:1.0 21:2.0 22:4.0 23:18.0 24:32.0 
0.6588450158176141 0.3055774745375073 0.09703230078319598 0.10263551914341554 0.12571884019132032 1:28.0 2:0.0 3:0.0 4:0.0 5:1.0 6:0.0 7:33.0 8:0.727272727 9:4.0 10:8.0 11:1.0 12:11.0 13:4.0 14:3.0 15:0.0 16:0.0 17:3.0 18:13.0 19:5.0 20:0.0 21:0.0 22:5.0 23:15.0 24:33.0 
0.8020812497699413 0.4463892387943942 0.17763568468009225 0.17778582218919697 0.1813450613331565 1:31.0 2:0.0 3:0.0 4:0.0 5:0.0 6:0.0 7:36.0 8:0.861111111 9:4.0 10:3.0 11:5.0 12:9.0 13:5.0 14:6.0 15:0.0 16:0.0 17:5.0 18:11.0 19:5.0 20:0.0 21:0.0 22:4.0 23:10.0 24:36.0 
0.2590198235772035 0.43424180074267255 0.20812257586095037 0.21489532196791644 0.024846443162370772 1:31.0 2:0.0 3:0.0 4:0.0 5:0.0 6:0.0 7:32.0 8:0.6875 9:4.0 10:5.0 11:0.0 12:7.0 13:3.0 14:1.0 15:1.0 16:2.0 17:4.0 18:11.0 19:4.0 20:2.0 21:0.0 22:5.0 23:16.0 24:32.0 
